svm_type c_svc
kernel_type rbf
gamma 0.03125
nr_class 7
total_sv 510
rho -0.0847535 0.112401 -0.044128 0.415367 0.49133 0.0872183 0.196666 0.0337245 0.488669 0.563354 0.169844 -0.118942 0.294336 0.338295 0.0163352 0.555925 0.50355 0.169965 0.0424095 -0.349358 -0.389805
label 1 2 3 4 5 6 7
probA -5.13466 -5.00907 -4.74815 -5.1841 -5.18623 -4.81167 -4.85551 -4.92262 -4.98381 -5.06776 -4.8529 -5.00056 -5.08429 -5.03092 -4.58237 -5.06765 -5.04655 -4.82577 -5.44903 -5.09312 -5.13844
probB -0.124605 0.12537 0.0665595 -0.0768641 -0.224701 -0.128617 0.381969 -0.0211782 0.0227356 -0.0435022 -0.218101 -0.310697 -0.671888 -0.552242 -0.549823 -0.420675 -0.18913 -0.214564 0.05954 -0.171389 -0.18358
nr_sv 74 47 59 58 115 110 47
SV
0 0.2022145864654395 0 0.5217124238609717 0 0 1:-0.83205 2:-0.5547 3:-0.880036 4:-0.396214 5:-0.928022 6:-0.237729 7:-0.976007 8:-0.079243 9:-0.857143 10:0.142857 11:-0.571429 12:0.428571 13:-0.285714 14:0.714286 16:1 17:-0.285714 18:0.714286 19:-0.571429 20:0.428571 21:-0.857143 22:0.142857 23:-0.995735 24:0.034648 25:-0.987204 26:0.103944 27:-0.978673 28:0.17324 29:-0.970143 30:0.242536 31:-0.978673 32:0.17324 33:-0.987204 34:0.103944 35:-0.995735 36:0.034648 37:-0.994966 38:0.037588 39:-0.984899 40:0.112765 41:-0.974831 42:0.187941 43:-0.964764 44:0.263117 45:-0.891148 46:-0.01409 47:-0.817531 48:-0.291296 49:-0.743915 50:-0.568503 51:-0.505076 52:-0.707107 53:-0.101015 54:-0.707107 55:0.303046 56:-0.707107 57:0.707107 58:-0.707107 59:0.790791 60:-0.505076 61:0.874474 62:-0.303046 63:0.958158 64:-0.101015 65:0.992669 66:-0.045175 67:0.978007 68:-0.135526 69:0.963345 70:-0.225877 71:0.948683 72:-0.316228 73:0.677631 74:-0.225877 75:0.406579 76:-0.135526 77:0.135526 78:-0.045175 79:0.137361 80:-0.039246 81:0.412082 82:-0.117738 83:0.686803 84:-0.196229 85:0.961524 86:-0.274721 87:0.957855 88:-0.105879 89:0.954186 90:0.062964 91:0.950518 92:0.231806 93:0.847805 94:0.409644 95:0.646049 96:0.596477 97:0.444292 98:0.78331 99:0.242536 100:0.970143 
0 0 0 0 0.6294852197834739 0 1:-0.316228 2:-0.948683 3:-0.600187 4:-0.664724 5:-0.884147 6:-0.380764 7:-0.948683 8:-0.316228 9:-0.948683 10:-0.316228 11:-0.716353 12:-0.238784 13:-0.290413 14:-0.096804 15:-0.12488 16:-0.069378 17:-0.517358 18:-0.287421 19:-0.874985 20:-0.484074 21:-0.884085 22:-0.46682 23:-0.893186 24:-0.449566 25:-0.930855 26:-0.332765 27:-0.973034 28:-0.200246 29:-0.987085 30:-0.159722 31:-0.985064 32:-0.171768 33:-0.984334 34:-0.176225 35:-0.985467 36:-0.169721 37:-0.824239 38:-0.150979 39:0.067611 40:-0.077167 41:0.959461 42:-0.003355 43:0.961586 44:0.177344 45:0.921342 46:0.363133 47:0.933294 48:0.342722 49:0.964818 50:0.244985 51:0.976303 52:0.213762 53:0.967747 54:0.249054 55:0.9631 56:0.268616 57:0.968877 58:0.246229 59:0.954506 60:0.220271 61:0.517024 62:0.119313 63:0.079542 64:0.018356 65:0.328565 66:0.164283 67:0.730145 68:0.365072 69:0.884628 70:0.465064 71:0.868046 72:0.495272 73:0.602048 74:0.31505 75:-0.100425 76:-0.233424 77:-0.691195 78:-0.718575 79:-0.574508 80:-0.802678 81:-0.457821 82:-0.886781 83:-0.467183 84:-0.88374 85:-0.48915 86:-0.871984 87:-0.34426 88:-0.602454 89:-0.121503 90:-0.212631 
0.06987388561300305 0.3660505904850797 0.062513669476437 0 0 0.7921824446766012 3:-0.424515 4:-0.28301 5:-0.835478 6:-0.54338 7:-0.921166 8:-0.260369 9:-0.959184 11:-0.44898 17:-0.073014 18:-0.036507 19:-0.529355 20:-0.264677 21:-0.803159 22:-0.40158 23:-0.346819 24:-0.173409 25:-0.121503 26:-0.015188 27:-0.627768 28:-0.078471 29:-0.993381 30:-0.106315 31:-0.997321 32:-0.043033 33:-0.952181 34:-0.115446 35:-0.802745 36:-0.476215 37:-0.724169 38:-0.687434 39:-0.771563 40:-0.632788 41:-0.806541 42:-0.364347 43:-0.822893 44:0.224786 45:-0.645263 46:0.430176 47:-0.220748 48:0.147165 49:-0.237586 50:-0.059396 51:-0.732557 52:-0.183139 53:-0.978064 54:-0.178189 55:-0.993297 56:-0.054447 57:-1 59:-1 61:-0.996923 62:0.043292 63:-0.991796 64:0.115446 65:-0.485574 66:-0.176447 67:0.302512 68:-0.673116 69:0.705705 70:-0.494315 71:0.927771 72:0.002354 73:0.626295 74:0.089471 75:0.121218 76:0.017317 77:0.357928 78:-0.149137 79:0.828885 80:-0.345369 81:0.950372 82:-0.285353 83:0.984491 84:-0.161274 85:0.992497 86:-0.119613 87:0.995529 88:-0.093651 89:0.984332 90:-0.158781 91:0.971194 92:-0.236332 93:0.756267 94:-0.531189 95:0.523795 96:-0.844943 97:0.262498 98:-0.437496 
0 0 0.4696155150789095 0.08142662038962376 0 0 2:-1 4:-1 6:-1 8:-1 9:-0.22449 10:-0.77551 11:-0.530612 12:-0.469388 13:-0.836735 14:-0.163265 15:-0.998897 16:-0.017719 17:-0.996533 18:-0.055689 19:-0.994169 20:-0.093659 21:-0.988372 22:-0.139179 23:-0.968841 24:-0.2149 25:-0.94931 26:-0.290621 27:-0.929779 28:-0.366343 29:-0.948912 30:-0.265279 31:-0.970807 32:-0.151588 33:-0.992702 34:-0.037897 35:-0.983499 36:-0.080392 37:-0.958747 38:-0.200979 39:-0.933996 40:-0.321567 41:-0.916118 42:-0.400445 43:-0.908552 44:-0.41676 45:-0.900985 46:-0.433074 47:-0.894427 48:-0.447214 49:-0.894427 50:-0.447214 51:-0.894427 52:-0.447214 53:-0.894427 54:-0.447214 55:-0.399745 56:-0.392911 57:0.171041 58:-0.330255 59:0.741828 60:-0.267598 61:0.974503 62:-0.177705 63:0.981771 64:-0.069654 65:0.989039 66:0.038397 67:0.892467 68:0.099163 69:0.588217 70:0.065357 71:0.283967 72:0.031552 73:0.019109 74:0.007166 75:0.30574 76:0.114653 77:0.592372 78:0.222139 79:0.879003 80:0.329626 81:0.906306 82:0.407478 83:0.868776 84:0.477921 85:0.831247 86:0.548365 87:0.841923 88:0.513183 89:0.894778 90:0.385579 91:0.947633 92:0.257975 93:0.982063 94:0.180283 95:0.965824 96:0.239848 97:0.949585 98:0.299414 99:0.933346 100:0.358979 
0 0 0.4731381195120027 0 1.273341596482907 0.02665569303202618 7:0.024791 8:-0.223117 9:0.069865 10:-0.628784 11:0.105924 12:-0.953317 13:0.06085 14:-0.54765 15:0.015776 16:-0.141983 17:0.1876 18:-0.1876 19:0.476215 20:-0.476215 21:0.612877 22:-0.722398 23:0.141725 24:-0.798856 25:-0.329426 26:-0.875313 27:-0.607294 28:-0.546377 29:-0.820734 30:-0.082311 31:-0.973799 32:0.212837 33:-0.985985 34:0.113843 35:-0.998172 36:0.014849 37:-0.994404 38:-0.062062 39:-0.98782 40:-0.135077 41:-0.823238 42:-0.14968 43:-0.421659 44:-0.076665 45:-0.020079 46:-0.003651 47:-0.387755 49:-0.795918 51:-1 53:-1 55:-0.99994 56:-0.001565 57:-0.998738 58:-0.03287 59:-0.997535 60:-0.064175 61:-0.926047 62:0.115255 63:-0.807701 64:0.435175 65:-0.612873 66:0.697776 67:0.015355 68:0.635569 69:0.643582 70:0.573362 71:0.874488 72:0.340181 73:0.935112 74:0.033726 75:0.982562 76:-0.176104 77:0.990488 78:-0.096057 79:0.998415 80:-0.016009 81:0.993659 82:-0.064038 83:0.985733 84:-0.144085 85:0.982861 86:-0.179963 87:0.989378 88:-0.133812 89:0.995894 90:-0.087661 91:0.974425 92:-0.181523 93:0.949847 94:-0.290943 95:0.941822 96:-0.333957 97:0.954029 98:-0.29581 99:0.966235 100:-0.257663 
0 0 0 0 0.06137408842297273 0 2:1 3:0.310311 4:0.497905 5:0.620623 6:-0.004189 7:0.817104 8:-0.42896 9:0.159853 10:-0.273804 11:-0.497397 12:-0.118649 13:-1 15:-1 17:-1 19:-0.992204 20:0.042995 21:-0.970114 22:0.164813 23:-0.948024 24:0.286631 25:-0.946724 26:0.293797 27:-0.968814 28:0.171979 29:-0.990904 30:0.05016 31:-0.996037 32:0.040024 33:-0.9893 34:0.108064 35:-0.982562 36:0.176104 37:-0.982489 38:0.185326 39:-0.985192 40:0.17004 41:-0.987895 42:0.154755 43:-0.983163 44:0.177908 45:-0.976839 46:0.209299 47:-0.970515 48:0.240689 49:-0.326831 50:0.16334 51:0.356688 52:0.079195 53:0.999477 54:-0.004589 55:0.990593 56:-0.082601 57:0.981708 58:-0.160614 59:0.975655 60:-0.217185 61:0.982818 62:-0.173694 63:0.989981 64:-0.130203 65:0.994357 66:-0.104866 67:0.992045 68:-0.123099 69:0.989732 70:-0.141332 71:0.987259 72:-0.158351 73:0.984556 74:-0.173637 75:0.981853 76:-0.188923 77:0.984147 78:-0.160095 79:0.990885 80:-0.092054 81:0.997622 82:-0.024014 83:1 85:1 87:1 89:0.997951 90:-0.032907 91:0.995272 92:-0.07594 93:0.992593 94:-0.118972 95:0.962324 96:-0.222967 97:0.928375 98:-0.33509 99:0.894427 100:-0.447214 
0.3880835151760577 0.5588142101098967 0.360706829850735 0 0.514506964074734 0.7717250142362366 1:-1 3:-0.971991 4:-0.118649 5:-0.943982 6:-0.237297 7:-0.915973 8:-0.355946 9:-0.900891 10:-0.419833 11:-0.9289 12:-0.301185 13:-0.956909 14:-0.182536 15:-0.984918 16:-0.063888 17:-0.877551 19:-0.612245 21:-0.346939 23:-0.081633 33:-0.236269 34:0.064437 35:-0.492226 36:0.134244 37:-0.748184 38:0.20405 39:-0.966112 40:0.255093 41:-0.974872 42:0.202934 43:-0.983633 44:0.150775 45:-0.992394 46:0.098617 47:-0.998011 48:0.059731 49:-0.998599 50:0.042084 51:-0.999186 52:0.024436 53:-0.999774 54:0.006788 55:-0.67511 56:0.023089 57:-0.147165 58:0.060609 59:0.380781 60:0.098129 61:0.908727 62:0.135649 63:0.767716 64:0.109674 65:0.505076 66:0.072154 67:0.242437 68:0.034634 77:0.077443 78:-0.025815 79:0.329135 80:-0.109712 81:0.580827 82:-0.193609 83:0.832518 84:-0.277506 85:0.954071 86:-0.294538 87:0.964075 88:-0.254257 89:0.97408 90:-0.213976 91:0.984085 92:-0.173695 93:0.977281 94:-0.062208 95:0.965435 96:0.07064 97:0.953588 98:0.203488 99:0.941742 100:0.336336 
0 0.05185570676463629 0 0 0 0 1:-0.8 2:0.6 3:-0.852743 4:0.493786 5:-0.905485 6:0.387573 7:-0.958228 8:0.281359 9:-0.969137 10:0.240949 11:-0.977258 12:0.204925 13:-0.985379 14:0.168902 15:-0.939479 16:0.280059 17:-0.885862 18:0.412242 19:-0.832245 20:0.544426 21:-0.852473 22:0.51135 23:-0.889743 24:0.440138 25:-0.927012 26:0.368926 27:-0.941594 28:0.335505 29:-0.948613 30:0.31468 31:-0.955633 32:0.293856 33:-0.964239 34:0.259747 35:-0.973568 36:0.219601 37:-0.982896 38:0.179454 39:-0.59148 40:0.066312 41:0.040382 42:-0.090628 43:0.672244 44:-0.247567 45:0.954542 46:-0.294166 47:0.964957 48:-0.254946 49:0.975373 50:-0.215726 51:0.968434 52:-0.23314 53:0.944141 54:-0.307187 55:0.919848 56:-0.381234 57:0.909368 58:-0.415529 59:0.916647 60:-0.398714 61:0.923927 62:-0.3819 63:0.936923 64:-0.334638 65:0.959448 66:-0.236632 67:0.981973 68:-0.138626 69:0.992482 70:-0.096245 71:0.976555 72:-0.176239 73:0.960628 74:-0.256232 75:0.951287 76:-0.274404 77:0.961703 78:-0.107108 79:0.972118 80:0.060188 81:0.969525 82:0.220844 83:0.91056 84:0.352724 85:0.851594 86:0.484605 87:0.806069 88:0.588417 89:0.854618 90:0.495757 91:0.903168 92:0.403097 93:0.929322 94:0.309774 95:0.619548 96:0.206516 97:0.309774 98:0.103258 
0 0 0.7359841267523605 1.39188723191685 0 0 1:0.141421 2:0.989949 3:-0.273605 4:0.570437 5:-0.688631 6:0.150924 7:-0.989558 8:-0.136541 9:-0.99383 10:-0.080683 11:-0.998102 12:-0.024826 13:-0.993907 14:-0.049497 15:-0.982939 16:-0.138592 17:-0.971971 18:-0.227687 19:-0.67316 20:-0.16829 21:-0.316781 22:-0.079195 23:-0.040675 24:-0.00339 25:-0.406753 26:-0.033896 27:-0.772831 28:-0.064403 29:-0.987517 30:-0.122465 31:-0.964301 32:-0.223828 33:-0.941084 34:-0.325191 35:-0.923815 36:-0.380588 37:-0.909518 38:-0.413 39:-0.895221 40:-0.445413 41:-0.239856 42:-0.33509 43:0.453219 44:-0.216372 45:0.992908 46:-0.113909 47:0.995745 48:-0.068346 49:0.998582 50:-0.022782 51:0.816327 53:0.44898 55:0.081633 57:0.285714 59:0.653061 61:0.998171 62:0.008445 63:0.965244 64:0.160454 65:0.932318 66:0.312463 67:0.911441 68:0.411368 69:0.914666 70:0.404064 71:0.917891 72:0.39676 73:0.712806 74:0.529978 75:0.375161 76:0.75262 77:0.037516 78:0.975262 79:-0.103258 80:0.983244 81:-0.219423 82:0.964392 83:-0.296867 84:0.890601 85:-0.180702 86:0.542105 87:-0.064536 88:0.193609 95:0.243855 96:0.104509 97:0.5815 98:0.249214 99:0.919145 100:0.393919 
0 0 0 0 0.0467705025883451 0 3:-0.225785 4:-0.263416 5:-0.45157 6:-0.526831 7:-0.627924 8:-0.768915 9:-0.433549 10:-0.851014 11:-0.239175 12:-0.933112 13:-0.15616 14:-0.951103 15:-0.435061 16:-0.760745 17:-0.713962 18:-0.570387 19:-0.906124 20:-0.40977 21:-0.939264 22:-0.303678 23:-0.972405 24:-0.197587 25:-0.943771 26:-0.233778 27:-0.845642 28:-0.430036 29:-0.747513 30:-0.626295 31:-0.765633 32:-0.585336 33:-0.865127 34:-0.378327 35:-0.964621 36:-0.171317 37:-0.980637 38:-0.167079 39:-0.961871 40:-0.24733 41:-0.943105 42:-0.327581 43:-0.942333 44:-0.153751 45:-0.945418 46:0.074524 47:-0.948502 48:0.3028 49:-0.869801 50:0.443862 51:-0.785989 52:0.579473 53:-0.673728 54:0.685097 55:-0.10628 56:0.310924 57:0.461167 58:-0.063248 59:0.9305 60:-0.331833 61:0.941965 62:-0.107672 63:0.953431 64:0.11649 65:0.965098 66:0.255162 67:0.977248 68:0.188663 69:0.989398 70:0.122163 71:0.997039 72:0.071182 73:0.998238 74:0.04237 75:0.999436 76:0.013558 77:0.994516 78:0.044547 79:0.984157 80:0.128692 81:0.973799 82:0.212837 83:0.974589 84:0.219837 85:0.981461 86:0.184756 87:0.988333 88:0.149676 89:0.975724 90:0.197057 91:0.957121 92:0.26981 93:0.938518 94:0.342564 95:0.95582 96:0.243637 97:0.97791 98:0.121818 99:1 
0 0 0 0.5823114261478043 0 0 1:-0.970143 2:0.242536 3:-0.978379 4:0.120078 5:-0.986616 6:-0.00238 7:-0.994133 8:-0.105924 9:-0.996255 10:-0.067611 11:-0.998377 12:-0.029298 13:-1 15:-1 17:-1 19:-0.991242 20:-0.045476 21:-0.966428 22:-0.174326 23:-0.941614 24:-0.303176 25:-0.940154 26:-0.310755 27:-0.964968 28:-0.181906 29:-0.989782 30:-0.053056 31:-0.997949 32:-0.028861 33:-0.994462 34:-0.077926 35:-0.990975 36:-0.126991 37:-0.574344 38:-0.279957 39:0.014431 40:-0.476215 41:0.603205 42:-0.672473 43:0.733648 44:-0.676505 45:0.765876 46:-0.639345 47:0.798104 48:-0.602186 49:0.865306 50:-0.404082 51:0.934694 52:-0.195918 53:0.999795 54:-0.002886 55:0.996308 56:-0.051951 57:0.992821 58:-0.101015 59:0.988408 60:-0.116654 61:0.97967 62:0.023696 63:0.970932 64:0.164047 65:0.966713 66:0.254522 67:0.973342 68:0.225299 69:0.979971 70:0.196076 71:0.981909 72:0.187978 73:0.977146 74:0.210061 75:0.972384 76:0.232144 77:0.944779 78:0.299872 79:0.896869 80:0.408174 81:0.84896 82:0.516476 83:0.846053 84:0.530571 85:0.867694 86:0.493279 87:0.889335 88:0.455988 89:0.826975 90:0.532379 91:0.738768 92:0.643749 93:0.650562 94:0.755119 95:0.734623 96:0.436247 97:0.841653 98:0.06001 99:0.948683 100:-0.316228 
0 0 0 0 0 0.00584154397992757 1:-0.961524 2:0.274721 3:-0.940984 4:0.327525 5:-0.920444 6:0.380329 7:-0.899904 8:0.433133 9:-0.915073 10:0.309913 11:-0.943226 12:0.122684 13:-0.971379 14:-0.064544 15:-0.845481 16:-0.140913 17:-0.543523 18:-0.090587 19:-0.241566 20:-0.040261 29:-0.273665 30:0.082099 31:-0.566877 32:0.170063 33:-0.860089 34:0.258027 35:-0.96034 36:0.278203 37:-0.96411 38:0.264484 39:-0.96788 40:0.250766 41:-0.741828 42:0.158077 43:-0.171041 44:-0.053071 45:0.399745 46:-0.264219 47:0.898326 48:-0.434732 49:0.927568 50:-0.341122 51:0.956809 52:-0.247513 53:0.986051 54:-0.153903 55:0.979001 56:-0.020004 57:0.966369 58:0.120092 59:0.953736 60:0.260189 61:0.958109 62:0.258145 63:0.973818 64:0.161341 65:0.989527 66:0.064536 67:0.998612 68:-0.016775 69:0.994446 70:-0.067102 71:0.990281 72:-0.117428 73:0.986672 74:-0.161044 75:0.990837 76:-0.110718 77:0.995002 78:-0.060392 79:0.999167 80:-0.010065 81:0.974145 82:0.109522 83:0.941827 84:0.246424 85:0.909509 86:0.383326 87:0.894427 88:0.447214 89:0.894427 90:0.447214 91:0.894427 92:0.447214 93:0.902805 94:0.416967 95:0.934221 96:0.303544 97:0.965638 98:0.19012 99:0.997054 100:0.076697 
0 0 0 0 0.03735785430985664 0 2:1 3:0.12885 4:0.330937 5:0.2577 6:-0.338127 7:0.345019 8:-0.929826 9:0.120858 10:-0.941291 11:-0.103304 12:-0.952756 13:-0.333107 14:-0.894577 15:-0.581248 16:-0.610051 17:-0.829388 18:-0.325526 19:-0.988802 20:-0.148119 21:-0.985552 22:-0.167094 23:-0.982301 24:-0.18607 25:-0.982753 26:-0.146068 27:-0.987368 28:-0.039714 29:-0.991983 30:0.066639 31:-0.973586 32:-0.003374 33:-0.939081 34:-0.196842 35:-0.904576 36:-0.390311 37:-0.917572 38:-0.301364 39:-0.950361 40:-0.094743 41:-0.98315 42:0.111878 43:-0.961934 44:0.233733 45:-0.929145 46:0.337423 47:-0.896356 48:0.441114 49:-0.748398 50:0.009127 51:-0.593243 52:-0.45634 53:-0.418726 54:-0.86972 55:0.065565 56:-0.449697 57:0.549856 58:-0.029674 59:0.950636 60:0.28486 61:0.961703 62:0.107108 63:0.972769 64:-0.070644 65:0.982562 66:-0.176104 67:0.9893 68:-0.108064 69:0.996037 70:-0.040024 71:0.993683 72:-0.042012 73:0.978341 74:-0.144042 75:0.962999 76:-0.246072 77:0.954476 78:-0.181987 79:0.952014 80:0.029754 81:0.949552 82:0.241495 83:0.94591 84:0.324061 85:0.941624 86:0.336168 87:0.937338 88:0.348275 89:0.949612 90:0.301584 91:0.966981 92:0.236802 93:0.98435 94:0.17202 95:0.958241 96:-0.022829 97:0.926334 98:-0.235021 99:0.894427 100:-0.447214 
0 0 0.425814758298655 0.3852974769013814 0 0 1:-0.894427 2:0.447214 3:-0.747107 4:-0.058693 5:-0.599786 6:-0.5646 7:-0.593762 8:-0.717494 9:-0.782019 10:-0.384997 11:-0.970275 12:-0.0525 13:-1 15:-1 17:-0.897959 19:-0.510204 21:-0.122449 23:-0.263683 24:0.029298 25:-0.649067 26:0.072119 27:-0.992915 28:0.096025 29:-0.983709 30:-0.04084 31:-0.974503 32:-0.177705 33:-0.916462 34:-0.048731 35:-0.814468 36:0.319498 37:-0.712475 38:0.687726 39:-0.132356 40:0.258355 41:0.474326 42:-0.215328 43:0.877851 44:-0.440996 45:0.933109 46:-0.241498 47:0.988367 48:-0.042 49:0.99086 50:0.074246 51:0.979283 52:0.16829 53:0.969703 54:0.244216 55:0.967618 56:0.252196 57:0.965532 58:0.260177 59:0.958649 60:0.282373 61:0.948966 62:0.31286 63:0.937595 64:0.346089 65:0.895817 66:0.428664 67:0.854039 68:0.51124 69:0.785983 70:0.602278 71:0.688729 72:0.702719 73:0.591475 74:0.803161 75:0.624907 76:0.776741 77:0.673713 78:0.735395 79:0.716139 80:0.697016 81:0.74474 82:0.66506 83:0.773342 84:0.633104 85:0.302213 86:0.318435 87:-0.347392 88:-0.097203 89:-0.894427 90:-0.392453 91:-0.894427 92:-0.045634 93:-0.894427 94:0.301185 95:-0.737663 96:0.566949 97:-0.46689 98:0.773765 99:-0.196116 100:0.980581 
0.1848382557947926 0.3842392375964427 0.1877186470585708 0 1.67313579661129 0.5544155971976008 1:0.613941 2:-0.789352 3:0.185752 4:-0.579932 5:-0.242436 6:-0.370512 7:-0.670624 8:-0.161092 9:-0.999844 10:-0.004362 11:-0.99917 12:-0.023264 13:-0.998496 14:-0.042167 15:-0.997822 16:-0.061069 17:-0.984843 18:-0.117284 19:-0.957508 20:-0.21703 21:-0.930173 22:-0.316776 23:-0.902838 24:-0.416522 25:-0.672062 26:-0.190824 27:-0.350868 28:0.179516 29:-0.029674 30:0.549856 31:0.291521 32:0.920196 33:-0.006114 34:0.716353 35:-0.355317 36:0.464661 37:-0.70452 38:0.21297 39:-0.94093 40:0.036507 41:-0.556975 42:0.273804 43:-0.173021 44:0.511101 45:0.210934 46:0.748398 47:0.329426 48:0.875313 49:0.023178 50:0.825616 51:-0.283071 52:0.775918 53:-0.589319 54:0.726221 55:-0.433908 56:0.633728 57:0.01004 58:0.514488 59:0.453987 60:0.395248 61:0.897935 62:0.276007 63:0.950115 64:0.300215 65:0.931064 66:0.350504 67:0.912013 68:0.400793 69:0.896582 70:0.438087 71:0.924591 72:0.319438 73:0.9526 74:0.20079 75:0.980609 76:0.082141 77:0.998415 78:0.016009 79:0.993263 80:0.06804 81:0.988111 82:0.120071 83:0.982959 84:0.172102 85:0.77661 86:0.040324 87:0.397808 88:-0.249004 89:0.019005 90:-0.538331 91:-0.359798 92:-0.827659 93:-0.355946 94:-0.711891 95:-0.237297 96:-0.474594 97:-0.118649 98:-0.237297 
0 0 0 0 0.3980632837608932 0 2:-1 4:-1 6:-1 7:-0.018254 8:-0.995691 9:-0.173409 10:-0.959064 11:-0.328565 12:-0.922436 13:-0.478629 14:-0.866694 15:-0.612144 16:-0.74883 17:-0.745658 18:-0.630965 19:-0.851385 20:-0.504095 21:-0.906166 22:-0.360712 23:-0.960948 24:-0.21733 25:-0.991339 26:-0.109276 27:-0.994292 28:-0.040967 29:-0.997245 30:0.027343 31:-0.994244 32:0.001389 33:-0.987077 34:-0.09055 35:-0.97991 36:-0.182488 37:-0.982023 38:-0.182584 39:-0.988003 40:-0.144412 41:-0.993982 42:-0.10624 43:-0.94847 44:0.087412 45:-0.891923 46:0.31438 47:-0.835377 48:0.541349 49:-0.886891 50:0.373574 51:-0.945159 52:0.181127 53:-0.960643 54:0.007579 55:-0.29158 56:0.136429 57:0.377483 58:0.265279 59:0.932436 60:0.341499 61:0.954874 62:0.172112 63:0.977312 64:0.002726 65:0.992824 66:-0.090488 67:0.991713 68:-0.000887 69:0.990603 70:0.088715 71:0.989949 72:0.141421 73:0.989949 74:0.141421 75:0.989949 76:0.141421 77:0.991796 78:0.115446 79:0.995282 80:0.066381 81:0.998769 82:0.017317 83:0.983944 84:0.083373 85:0.95913 86:0.212223 87:0.934315 88:0.341073 89:0.947452 90:0.272858 91:0.972266 92:0.144009 93:0.997081 94:0.015159 95:0.956375 96:0.157499 97:0.906934 98:0.335997 99:0.857493 100:0.514496 
0.09961386412535676 0 0.4841564345429382 0.09276800598945625 0 0.1686836964861193 2:1 3:-0.274184 4:0.338061 5:-0.548369 6:-0.323879 7:-0.707107 8:-0.707107 9:-0.707107 10:-0.707107 11:-0.707107 12:-0.707107 13:-0.747905 14:-0.657341 15:-0.796352 16:-0.598245 17:-0.843952 18:-0.46583 19:-0.889177 20:-0.128123 21:-0.934402 22:0.209584 23:-0.954377 24:0.167984 25:-0.962697 26:-0.048679 27:-0.969267 28:-0.245543 29:-0.960946 30:-0.274118 31:-0.952625 32:-0.302692 33:-0.955193 34:-0.291715 35:-0.967561 36:-0.245141 37:-0.97993 38:-0.198567 39:-0.948932 40:0.040209 41:-0.915526 42:0.289663 43:-0.811827 44:0.518852 45:-0.587627 46:0.7133 47:-0.363428 48:0.907747 49:0.077559 50:0.732516 51:0.576356 52:0.458703 53:0.968391 54:0.248551 55:0.96007 56:0.277126 57:0.951749 58:0.3057 59:0.953939 60:0.298181 61:0.96226 62:0.269606 63:0.968597 64:0.246713 65:0.939238 66:0.326078 67:0.909879 68:0.405443 69:0.8696 70:0.484605 71:0.817187 72:0.563544 73:0.764774 74:0.642482 75:0.817966 76:0.553856 77:0.883582 78:0.445517 79:0.869547 80:0.435436 81:0.682934 82:0.638246 83:0.496322 84:0.841056 85:0.521469 86:0.840907 87:0.622244 88:0.768273 89:0.686553 90:0.72066 91:0.556377 92:0.806497 93:0.426201 94:0.892335 95:0.308342 96:0.943611 97:0.199439 98:0.969752 99:0.090536 100:0.995893 
0 0.03355327010000937 0 0 0 0.04398058482226976 1:-0.857493 2:0.514496 3:-0.901504 4:0.305996 5:-0.945516 6:0.097496 7:-0.989527 8:-0.111004 9:-0.966466 10:-0.214348 11:-0.938934 12:-0.310682 13:-0.911401 14:-0.407016 15:-0.877114 16:-0.470756 17:-0.841862 18:-0.529839 19:-0.80661 20:-0.588922 21:-0.587755 22:-0.440816 23:-0.326531 24:-0.244898 25:-0.065306 26:-0.04898 27:-0.232331 28:-0.077443 29:-0.542105 30:-0.180702 31:-0.851879 32:-0.28396 33:-0.79016 34:-0.463025 35:-0.559582 36:-0.676548 37:-0.329003 38:-0.890071 39:0.006183 40:-0.816426 41:0.404134 42:-0.570479 43:0.802084 44:-0.324532 45:0.980561 46:-0.177086 47:0.988337 48:-0.106252 49:0.996112 50:-0.035417 51:0.997779 52:0.026841 53:0.993336 54:0.080522 55:0.988893 56:0.134203 57:0.987234 58:0.123194 59:0.989156 60:0.029012 61:0.991077 62:-0.065171 63:0.991993 64:-0.126164 65:0.991232 66:-0.131841 67:0.990472 68:-0.137518 69:0.990975 70:-0.126991 71:0.994257 72:-0.080812 73:0.997539 74:-0.034634 75:0.991382 76:-0.036507 77:0.956909 78:-0.182536 79:0.922436 80:-0.328565 81:0.882959 82:-0.463125 83:0.821793 84:-0.547989 85:0.760627 86:-0.632852 87:0.652748 88:-0.710117 89:0.217873 90:-0.734203 91:-0.217001 92:-0.758289 93:-0.611946 94:-0.764933 95:-0.407964 96:-0.509955 97:-0.203982 98:-0.254978 
0.02182979051770072 0.1900256001879303 0 0 0 0 1:-0.8 2:0.6 3:-0.734694 4:0.665306 5:-0.669388 6:0.730612 7:-0.604082 8:0.795918 9:-0.671036 10:0.724908 11:-0.746807 12:0.64481 13:-0.822579 14:0.564712 15:-0.869968 16:0.321038 17:-0.913303 18:0.053996 19:-0.956639 20:-0.213047 21:-0.708806 22:-0.193311 23:-0.393781 24:-0.107395 25:-0.078756 26:-0.021479 27:-0.243892 28:0.022172 29:-0.569082 30:0.051735 31:-0.894271 32:0.081297 33:-0.931064 34:-0.088527 35:-0.836766 36:-0.348982 37:-0.742468 38:-0.609436 39:-0.638593 40:-0.752284 41:-0.528972 42:-0.824568 43:-0.41935 44:-0.896852 45:-0.208677 46:-0.915439 47:0.080592 48:-0.89226 49:0.369861 50:-0.869082 51:0.593762 52:-0.717494 53:0.752294 54:-0.437496 55:0.910826 56:-0.157499 57:0.998564 58:0.020203 59:0.995282 60:0.066381 61:0.992001 62:0.11256 63:0.987524 64:0.094406 65:0.981057 66:-0.030967 67:0.974589 68:-0.156341 69:0.969263 70:-0.189754 71:0.966449 72:-0.020854 73:0.963635 74:0.148046 75:0.963844 76:0.26384 77:0.973126 78:0.220313 79:0.982408 80:0.176787 81:0.990565 82:0.132763 83:0.993847 84:0.086584 85:0.997128 86:0.040406 87:0.998781 88:-0.009899 89:0.989032 90:-0.089095 91:0.979283 92:-0.16829 93:0.957923 94:-0.256534 95:0.762412 96:-0.480515 97:0.566901 98:-0.704496 99:0.371391 100:-0.928477 
0.1073152456297408 0.1757417862046125 0 0.4618699634591436 0 0.07662122455036605 1:0.970143 2:0.242536 3:0.549417 4:0.494971 5:0.128692 6:0.747406 7:-0.27266 8:0.93855 9:-0.528716 10:0.67001 11:-0.784773 12:0.40147 13:-0.980581 14:0.196116 15:-0.980581 16:0.196116 17:-0.980581 18:0.196116 19:-0.982013 20:0.156914 21:-0.986071 22:0.045841 23:-0.990129 24:-0.065231 25:-0.945719 26:0.011662 27:-0.846782 28:0.300017 29:-0.747846 30:0.588372 31:-0.754594 32:0.493056 33:-0.835322 34:0.129169 35:-0.91605 36:-0.234718 37:-0.89558 38:-0.417428 39:-0.832945 40:-0.524649 41:-0.77031 42:-0.63187 43:-0.670101 44:-0.720402 45:-0.561842 46:-0.804928 47:-0.453582 48:-0.889455 49:-0.221989 50:-0.919151 51:0.017311 52:-0.945419 53:0.252017 54:-0.964774 55:0.413194 56:-0.873517 57:0.574372 58:-0.78226 59:0.721897 60:-0.644454 61:0.805709 62:-0.289419 63:0.889522 64:0.065615 65:0.952274 66:0.302213 67:0.964481 68:0.254564 69:0.976689 70:0.206914 71:0.981909 72:0.187978 73:0.977146 74:0.210061 75:0.972384 76:0.232144 77:0.96249 78:0.266203 79:0.948034 80:0.310908 81:0.933579 82:0.355613 83:0.941479 84:0.324923 85:0.961572 86:0.25311 87:0.981666 88:0.181296 89:0.979796 90:0.193668 91:0.971167 92:0.231943 93:0.962539 94:0.270218 95:0.969137 96:0.240949 97:0.977766 98:0.202674 99:0.986394 100:0.164399 
0 0 0.1559468429422739 0 0 0 1:0.5547 2:-0.83205 3:0.124525 4:-0.83205 5:-0.305651 6:-0.83205 7:-0.619024 8:-0.747834 9:-0.771793 10:-0.547822 11:-0.924562 12:-0.347809 13:-0.900134 14:-0.408888 15:-0.842481 16:-0.518922 17:-0.818427 18:-0.518764 19:-0.888448 20:-0.210066 21:-0.958469 22:0.098632 23:-0.957724 24:0.025437 25:-0.924317 26:-0.224018 27:-0.897166 28:-0.440173 29:-0.923183 30:-0.373288 31:-0.9492 32:-0.306403 33:-0.960769 34:-0.277298 35:-0.959336 36:-0.282194 37:-0.957902 38:-0.28709 39:-0.927091 40:-0.360191 41:-0.894648 42:-0.437081 43:-0.889361 44:-0.444282 45:-0.930627 46:-0.332016 47:-0.971893 48:-0.219751 49:-0.383421 50:-0.061835 51:0.372982 52:0.108254 53:0.962976 54:0.261152 55:0.928935 56:0.349581 57:0.894894 58:0.438009 59:0.895572 60:0.441332 61:0.916501 62:0.395008 63:0.935474 64:0.353084 65:0.919226 66:0.390344 67:0.902979 68:0.427603 69:0.891864 70:0.452152 71:0.886452 72:0.462577 73:0.881041 74:0.473002 75:0.885313 76:0.464772 77:0.890725 78:0.454347 79:0.904977 80:0.416467 81:0.938383 82:0.319103 83:0.97179 84:0.221738 85:0.986129 86:0.140083 87:0.993659 88:0.064038 89:0.966156 90:0.054761 91:0.75181 92:0.40158 93:0.537464 94:0.748398 95:0.547608 96:0.593243 97:0.721018 98:0.073014 99:0.894427 100:-0.447214 
0 0 0 0 0.3559051786895494 0 1:0.316228 2:0.948683 3:-0.042008 4:0.434927 5:-0.400243 6:-0.078829 7:-0.758479 8:-0.592585 9:-0.84795 10:-0.433462 11:-0.919503 12:-0.22948 13:-0.991056 14:-0.025498 15:-1 17:-1 19:-1 21:-0.922294 22:0.1876 23:-0.826655 24:0.418492 25:-0.731016 26:0.649384 27:-0.776945 28:0.503562 29:-0.870062 30:0.232169 31:-0.963179 32:-0.039224 33:-0.977955 34:-0.012817 35:-0.957122 36:0.148955 37:-0.936289 38:0.310726 39:-0.852196 40:0.465403 41:-0.730146 42:0.615822 43:-0.608097 44:0.766242 45:-0.370675 46:0.843507 47:-0.04352 48:0.863875 49:0.283636 50:0.884243 51:0.520228 52:0.821413 53:0.666257 54:0.675384 55:0.812286 56:0.529355 57:0.909509 58:0.383326 59:0.943982 60:0.237297 61:0.978455 62:0.091268 63:0.987073 64:0.054761 65:0.9526 66:0.20079 67:0.918127 68:0.346819 69:0.899964 70:0.369311 71:0.91768 72:0.120024 73:0.935396 74:-0.129263 75:0.948683 76:-0.264599 77:0.948683 78:-0.058083 79:0.948683 80:0.148433 81:0.951825 82:0.296867 83:0.968582 84:0.193609 85:0.985338 86:0.090351 87:1 89:1 91:1 93:0.988719 94:0.018254 95:0.808217 96:0.310311 97:0.627715 98:0.602369 99:0.447214 100:0.894427 
0.08924720944138272 0 0 0 0 0 1:0.707107 2:0.707107 3:0.130137 4:0.675151 5:-0.446833 6:0.643196 7:-0.751339 8:0.653316 9:-0.681206 10:0.721292 11:-0.611074 12:0.789267 13:-0.634974 14:0.769668 15:-0.676505 16:0.733648 17:-0.735605 18:0.651728 19:-0.8439 20:0.441291 21:-0.952195 22:0.230853 23:-0.984313 24:0.066127 25:-0.981271 26:-0.077501 27:-0.977531 28:-0.209893 29:-0.96785 30:-0.246777 31:-0.958168 32:-0.28366 33:-0.944272 34:-0.325198 35:-0.926581 36:-0.370925 37:-0.90889 38:-0.416652 39:-0.89337 40:-0.447374 41:-0.87797 42:-0.477262 43:-0.833451 44:-0.536815 45:-0.739014 46:-0.64722 47:-0.644577 48:-0.757626 49:-0.159658 50:-0.678729 51:0.42939 52:-0.549353 53:0.899329 54:-0.386357 55:0.922615 56:-0.09729 57:0.945901 58:0.191777 59:0.945095 60:0.323388 61:0.930235 62:0.36315 63:0.916821 64:0.399092 65:0.929433 66:0.366292 67:0.942045 68:0.333491 69:0.958109 70:0.258145 71:0.978007 72:0.135526 73:0.997905 74:0.012907 75:0.986651 76:0.095311 77:0.971732 78:0.201836 79:0.962579 80:0.27078 81:0.965921 82:0.2583 83:0.969263 84:0.24582 85:0.94851 86:0.045464 87:0.919151 88:-0.221989 89:0.892166 90:-0.451333 91:0.877844 92:-0.477422 93:0.863523 94:-0.503511 95:0.844586 96:-0.533691 97:0.822293 98:-0.566845 99:0.8 100:-0.6 
0 0 0 1.394100337694437 0 0 1:-0.6 2:0.8 3:-0.540756 4:0.836615 5:-0.481513 6:0.873229 7:-0.447214 8:0.894427 9:-0.447214 10:0.894427 11:-0.447214 12:0.894427 13:-0.627715 14:0.602369 15:-0.842061 16:0.255551 17:-1 19:-1 21:-1 23:-0.997951 24:0.032907 25:-0.994957 26:0.081002 27:-0.992593 28:0.118972 29:-0.995587 30:0.070877 31:-0.998582 32:0.022782 33:-0.989527 34:-0.064536 35:-0.969629 36:-0.187155 37:-0.949731 38:-0.309774 39:-0.945418 40:-0.325601 41:-0.941971 42:-0.335494 43:-0.924402 44:-0.372166 45:-0.882624 46:-0.454741 47:-0.840846 48:-0.537316 49:-0.577341 50:-0.691016 51:-0.254709 52:-0.863684 53:0.077443 54:-0.944182 55:0.4453 56:-0.679046 57:0.813157 58:-0.41391 59:0.953939 60:-0.298181 61:0.96226 62:-0.269606 63:0.970547 64:-0.2347 65:0.978227 66:-0.085819 67:0.985907 68:0.063063 69:0.98237 70:0.173529 71:0.966369 72:0.241311 73:0.950368 74:0.309093 75:0.948683 76:0.096804 77:0.948683 78:-0.148433 79:0.919103 80:-0.190921 81:0.82543 82:0.205882 83:0.731757 84:0.602685 85:0.776129 86:0.414725 87:0.869801 88:0.017922 89:0.890601 90:-0.235642 91:0.522744 92:0.274732 93:0.154887 94:0.785106 95:0.158738 96:0.934248 97:0.432923 98:0.820678 99:0.707107 100:0.707107 
0 0 0 0.5387191646029352 0 0 19:-0.146096 20:0.170445 21:-0.45157 22:0.526831 23:-0.659986 24:0.51985 25:-0.686419 26:-0.168443 27:-0.733398 28:-0.661802 29:-0.854339 30:-0.453399 31:-0.963283 32:-0.237219 33:-0.94625 34:0.060611 35:-0.929217 36:0.358442 37:-0.879428 38:-0.052829 39:-0.82815 40:-0.496331 41:-0.861592 42:-0.495108 43:-0.91287 44:-0.400258 45:-0.923688 46:-0.382737 47:-0.916804 48:-0.399047 49:-0.89887 50:-0.434886 51:-0.872435 52:-0.485748 53:-0.682494 54:-0.613578 55:-0.279998 56:-0.841468 57:0.045175 58:-0.992669 59:0.193609 60:-0.968582 61:0.369169 62:-0.849761 63:0.673584 64:-0.280956 65:0.964764 66:0.263117 67:0.964764 68:0.263117 69:0.964764 70:0.263117 71:0.954062 72:0.296814 73:0.942341 74:0.33372 75:0.946418 76:0.321761 77:0.954882 78:0.296229 79:0.938418 80:0.336286 81:0.90866 82:0.411325 83:0.918391 84:0.368068 85:0.964321 86:0.216372 87:0.967521 88:0.195752 89:0.904255 90:0.37903 91:0.854378 92:0.519419 93:0.842435 94:0.53829 95:0.837954 96:0.498001 97:0.883215 98:0.063305 99:0.928477 100:-0.371391 
0 0.4514519753774601 0 0 0 0.2422655449815095 1:-0.948683 2:0.316228 3:-0.96171 4:0.214683 5:-0.974737 6:0.113138 7:-0.987764 8:0.011593 9:-0.936696 10:-0.062446 11:-0.671978 12:-0.044798 13:-0.407259 14:-0.027151 15:-0.142541 16:-0.009503 25:-0.129877 26:0.129877 27:-0.317477 28:0.317477 29:-0.505076 30:0.505076 31:-0.692676 32:0.692676 33:-0.778836 34:0.533938 35:-0.856542 36:0.346338 37:-0.934248 38:0.158738 39:-0.959184 40:-0.040816 41:-0.693878 42:-0.306122 43:-0.428571 44:-0.571429 45:-0.163265 46:-0.836735 47:0.101534 48:-0.908113 49:0.365524 50:-0.669205 51:0.629513 52:-0.430298 53:0.893503 54:-0.191391 55:0.992677 56:-0.115277 57:0.988842 58:-0.140909 59:0.985006 60:-0.166541 61:0.981171 62:-0.192173 63:0.76045 64:-0.15209 65:0.500296 66:-0.100059 67:0.240142 68:-0.048028 69:0.018254 70:-0.009127 71:0.255551 72:-0.127775 73:0.492848 74:-0.246424 75:0.730145 76:-0.365072 77:0.902225 78:-0.422251 79:0.927568 80:-0.341122 81:0.95291 82:-0.259994 83:0.978253 84:-0.178865 85:0.991385 86:-0.121218 87:0.994052 88:-0.083698 89:0.996718 90:-0.046178 91:0.999385 92:-0.008658 93:0.985403 94:0.075794 95:0.966428 96:0.174326 97:0.947452 98:0.272858 99:0.928477 100:0.371391 
0.1088953704828585 0.09153051131323561 0.3798785218477057 0.1448123541722533 0 0.1129894776750109 1:-0.986394 2:0.164399 3:-0.878099 4:0.374837 5:-0.769804 6:0.585274 7:-0.754926 8:0.591661 9:-0.868497 10:0.317477 11:-0.982068 12:0.043292 13:-0.990251 14:-0.079195 15:-0.978673 16:-0.17324 17:-0.943302 18:-0.289941 19:-0.841309 20:-0.470081 21:-0.739315 22:-0.650221 23:-0.756804 24:-0.638156 25:-0.829438 26:-0.537381 27:-0.894427 28:-0.447214 29:-0.894427 30:-0.447214 31:-0.894427 32:-0.447214 33:-0.518282 34:-0.420482 35:0.196393 36:-0.369691 37:0.911069 38:-0.318901 39:0.965711 40:-0.236615 41:0.983685 42:-0.152579 43:0.989243 44:-0.042678 45:0.973517 46:0.111563 47:0.957791 48:0.265803 49:0.963757 50:0.260166 51:0.975507 52:0.211894 53:0.980828 54:0.188262 55:0.96204 56:0.257026 57:0.943251 58:0.325789 59:0.94565 60:0.320202 61:0.960409 62:0.271242 63:0.973867 64:0.226724 65:0.963898 66:0.262153 67:0.95393 68:0.297581 69:0.957642 70:0.271231 71:0.976555 72:0.176239 73:0.995468 74:0.081246 75:0.877186 76:-0.216887 77:0.742764 78:-0.538919 79:0.454937 80:-0.627565 81:-0.165267 82:-0.21054 83:-0.785472 84:0.206484 85:-0.677631 86:0.225877 87:-0.309774 88:0.103258 
0 0 0 0.1693872258140357 0 0 1:-0.948683 2:-0.316228 3:-0.961316 4:-0.176131 5:-0.973948 6:-0.036034 7:-0.986581 8:0.104062 9:-0.980686 10:0.038684 11:-0.968053 12:-0.101413 13:-0.955421 14:-0.24151 15:-0.951749 16:-0.3057 17:-0.958318 18:-0.283141 19:-0.964887 20:-0.260583 21:-0.971667 22:-0.221594 23:-0.979287 24:-0.116889 25:-0.986908 26:-0.012183 27:-0.994529 28:0.092523 29:-0.978263 30:-0.029247 31:-0.960292 32:-0.167194 33:-0.94232 34:-0.305141 35:-0.94323 36:-0.328963 37:-0.953581 38:-0.295721 39:-0.963932 40:-0.26248 41:-0.85135 42:-0.335286 43:-0.554367 44:-0.567163 45:-0.257385 46:-0.79904 47:0.018254 48:-0.995691 49:0.155156 50:-0.963373 51:0.292058 52:-0.931054 53:0.42896 54:-0.898736 55:0.588719 56:-0.709161 57:0.751995 58:-0.495392 59:0.91527 60:-0.281624 61:0.983741 62:-0.172313 63:0.989007 64:-0.13264 65:0.994274 66:-0.092967 67:0.992775 68:-0.027463 69:0.977744 70:0.089704 71:0.962712 72:0.206872 73:0.949731 74:0.309774 75:0.96544 76:0.21297 77:0.981149 78:0.116165 79:0.996858 80:0.019361 81:0.996668 82:0.040261 83:0.992503 84:0.090587 85:0.988338 86:0.140913 87:0.971379 88:0.210573 89:0.943226 90:0.297149 91:0.915073 92:0.383725 93:0.879136 94:0.468429 95:0.821793 96:0.547989 97:0.76445 98:0.627548 99:0.707107 100:0.707107 
0 0 0.6295168128795179 1.059194609495794 0 0 3:0.230892 4:0.230892 5:0.461784 6:0.461784 7:0.692676 8:0.692676 9:0.200232 10:0.393841 11:-0.340434 12:0.059691 13:-0.8811 14:-0.274459 15:-0.948683 16:-0.316228 17:-0.948683 18:-0.316228 19:-0.948683 20:-0.316228 21:-0.696992 22:-0.232331 23:-0.387218 24:-0.129073 25:-0.077443 26:-0.025815 27:-0.237586 28:0.059396 29:-0.554367 30:0.138592 31:-0.871148 32:0.217787 33:-0.962552 34:0.109265 35:-0.951511 36:-0.084583 37:-0.94047 38:-0.27843 39:-0.915048 40:-0.39267 41:-0.880998 42:-0.459144 43:-0.846947 44:-0.525618 45:-0.679225 46:-0.63649 47:-0.407535 48:-0.781894 49:-0.135845 50:-0.927298 51:0.160095 52:-0.868754 53:0.480284 54:-0.606261 55:0.800474 56:-0.343768 57:0.956745 58:-0.085066 59:0.902265 60:0.168764 61:0.847784 62:0.422594 63:0.836039 64:0.521152 65:0.895519 66:0.360923 67:0.955 68:0.200693 69:0.991076 70:0.113566 71:0.97566 72:0.187261 73:0.960245 74:0.260956 75:0.946272 76:0.32257 77:0.936627 78:0.347939 79:0.926982 80:0.373307 81:0.902066 82:0.416836 83:0.810977 84:0.539057 85:0.719887 86:0.661278 87:0.641171 88:0.767372 89:0.649067 90:0.760576 91:0.656962 92:0.75378 93:0.671214 94:0.732156 95:0.780809 96:0.488104 97:0.890405 98:0.244052 99:1 
1.117906782794592 0.9539254698878755 0.702440692202512 1.422231234570462 0.9798264342985915 0.9867658162105711 9:0.109522 10:0.054761 11:0.584116 12:0.292058 13:0.730145 14:0.365072 15:0.255551 16:0.127775 17:0.240142 18:0.048028 19:0.76045 20:0.15209 21:0.986525 22:0.136081 23:0.996829 24:0.032019 25:0.632653 27:0.102041 33:-0.096057 34:-0.480284 35:-0.211475 36:-0.967022 37:-0.610796 38:-0.614509 39:-0.888948 40:-0.370102 41:-0.500671 42:-0.720284 43:-0.304805 44:-0.915975 45:-0.631195 46:-0.692329 47:-0.866326 48:-0.441496 49:-0.955442 50:-0.147165 51:-0.981024 52:-0.098532 53:-0.943073 54:-0.295597 55:-0.928477 56:-0.371391 57:-0.928477 58:-0.371391 59:-0.936312 60:-0.350001 61:-0.947034 62:-0.320731 63:-0.964481 64:-0.254564 65:-0.983152 66:-0.181688 67:-0.710066 68:-0.543958 69:-0.400098 70:-0.886781 71:0.212398 72:-0.787387 73:0.736994 74:-0.634953 75:0.892407 76:-0.259754 77:0.976734 78:0.083999 79:0.901118 80:0.356997 81:0.882782 82:0.34455 83:0.942555 84:-0.05714 85:0.955572 86:-0.060691 87:0.928512 88:0.277019 89:0.877809 90:0.465417 91:0.814589 92:0.574766 93:0.792191 94:0.61008 95:0.78204 96:0.623183 97:0.674708 98:0.722025 99:0.5547 100:0.83205 
0 0.08396655265149212 0 0 0.1149342047586403 0 3:0.230892 4:-0.230892 5:0.461784 6:-0.461784 7:0.692676 8:-0.692676 9:0.245748 10:-0.674319 11:-0.246369 12:-0.639345 13:-0.738485 14:-0.604372 15:-0.857143 16:-0.428571 17:-0.922449 18:-0.232653 19:-0.987755 20:-0.036735 21:-0.986385 22:0.083897 23:-0.969629 24:0.187155 25:-0.952872 26:0.290413 27:-0.943735 28:0.329737 29:-0.937137 30:0.347749 31:-0.930539 32:0.365762 33:-0.928477 34:0.371391 35:-0.928477 36:0.371391 37:-0.928477 38:0.371391 39:-0.93698 40:0.2461 41:-0.950585 42:0.045634 43:-0.96419 44:-0.154832 45:-0.92183 46:-0.068112 47:-0.835941 48:0.241976 49:-0.750051 50:0.552063 51:-0.754926 52:0.591661 53:-0.850565 54:0.360769 55:-0.946203 56:0.129877 57:-0.738279 58:-0.079243 59:-0.140058 60:-0.260369 61:0.458162 62:-0.441496 63:0.835166 64:-0.549777 65:0.843474 66:-0.536649 67:0.851781 68:-0.523521 69:0.842147 70:-0.53415 71:0.793042 72:-0.597043 73:0.743936 74:-0.659937 75:0.731016 76:-0.649384 77:0.826655 78:-0.418492 79:0.922294 80:-0.1876 81:1 83:1 85:1 87:0.999207 88:-0.008005 89:0.992866 90:-0.072043 91:0.986525 92:-0.136081 93:0.978288 94:-0.202239 95:0.941606 96:-0.300206 97:0.904925 98:-0.398172 99:0.868243 100:-0.496139 
0 0.03100181395801169 0 0 0 0 3:-0.084145 4:0.33658 5:-0.16829 6:0.67316 7:-0.232636 8:0.971361 9:-0.148491 10:0.98172 11:-0.064346 12:0.992079 13:-0.081633 14:0.918367 15:-0.428571 16:0.571429 17:-0.77551 18:0.22449 19:-1 21:-1 23:-1 25:-0.986799 26:0.064313 27:-0.958747 28:0.200979 29:-0.930696 30:0.337645 31:-0.931683 32:0.353551 33:-0.952997 34:0.284926 35:-0.974312 36:0.2163 37:-0.967821 38:0.239041 39:-0.949744 40:0.29985 41:-0.931667 42:0.36066 43:-0.900926 44:0.106793 45:-0.867472 46:-0.214504 47:-0.834018 48:-0.5358 49:-0.791252 50:-0.604466 51:-0.747905 52:-0.657341 53:-0.672268 54:-0.692676 55:-0.080006 56:-0.447353 57:0.512255 58:-0.202031 59:0.996858 60:-0.019361 61:0.979054 62:-0.129073 63:0.961251 64:-0.238784 65:0.952531 66:-0.300735 67:0.965615 68:-0.24806 69:0.978698 70:-0.195384 71:0.959766 72:-0.226628 73:0.895099 74:-0.377755 75:0.830432 76:-0.528881 77:0.831251 78:-0.445249 79:0.89028 80:-0.15294 81:0.949309 82:0.139368 83:0.976845 84:0.188089 85:0.987204 86:0.103944 87:0.997563 88:0.019799 89:1 91:1 93:1 95:1 97:1 99:1 
0.06873975503754708 0.05794487715436229 0 0 0.4042215728143342 0.04038415069928884 1:0.894427 2:0.447214 3:0.018254 4:-0.42896 5:-0.555209 6:-0.804296 7:-0.785601 8:-0.612017 9:-0.310204 10:-0.232653 11:-0.265306 13:-0.918367 15:-0.998734 16:-0.038011 17:-0.994661 18:-0.091744 19:-0.985574 20:-0.165126 21:-0.992429 22:-0.083967 23:-0.999827 24:0.007978 25:-0.99921 26:0.036345 27:-0.984894 28:-0.096631 29:-0.969584 30:-0.244697 31:-0.967032 32:-0.254576 33:-0.976882 34:-0.205473 35:-0.990975 36:-0.126991 37:-0.997539 38:-0.034634 39:-0.956909 40:-0.182536 41:-0.788724 42:-0.385872 43:0.338771 44:0.268439 45:0.885866 46:0.42661 47:0.977688 48:0.208972 49:0.950115 50:0.30374 51:0.953323 52:0.286122 53:0.98731 54:0.15612 55:0.99313 56:0.113135 57:0.996627 58:0.080517 59:0.998303 60:0.057617 61:0.996941 62:-0.030942 63:0.996899 64:-0.068364 65:0.999581 66:-0.009238 67:0.83861 68:-0.38963 69:0.745335 70:-0.654067 71:0.867667 72:-0.484341 73:0.077318 74:-0.579812 75:-0.664675 76:-0.445632 77:-0.494949 78:0.600268 79:0.225704 80:0.551761 81:0.986394 82:0.164399 83:0.986394 84:0.164399 85:0.979429 86:0.197886 87:0.971949 88:0.232862 89:0.986405 90:0.155474 91:0.607517 92:0.07594 93:0.040117 94:0.007522 95:0.681993 96:0.127874 97:0.331564 98:-0.034804 99:-0.894427 100:-0.447214 
0.05537618466825817 0.09012752867335215 0 0 0.2505348935257059 0 9:0.083897 10:0.251691 11:0.303834 12:0.951762 13:0.179892 14:0.982546 15:-0.645988 16:0.108587 17:-0.970143 18:-0.242536 19:-0.633562 20:-0.158391 21:-0.162267 22:-0.01803 23:-0.9736 24:-0.108178 25:-0.996729 26:-0.079244 27:-0.999015 28:-0.027626 29:-1 31:-1 33:-0.999626 34:-0.006761 35:-0.994633 36:-0.096909 37:-0.994315 38:0.038833 39:-0.997309 40:0.051274 41:-0.999364 42:-0.020368 43:-0.997744 44:-0.040533 45:-0.995981 46:0.084294 47:-0.771936 48:0.568693 49:-0.707107 50:0.707107 51:-0.826655 52:0.418492 53:-0.57472 54:0.100395 55:0.898534 56:0.433021 57:0.980664 58:0.149177 59:0.996668 60:-0.015492 61:0.99775 62:-0.066903 63:0.998649 64:-0.043283 65:1 67:1 69:0.995703 70:-0.080443 71:0.995214 72:-0.097392 73:0.996146 74:-0.087631 75:0.9971 76:-0.058254 77:0.998667 78:0.042598 79:0.974897 80:0.209213 81:0.983078 82:0.176502 83:0.735196 84:0.494873 85:0.063888 86:0.511101 87:-0.803159 88:-0.40158 89:-0.073014 90:-0.036507 91:-0.696992 92:0.232331 93:-0.81557 94:-0.24765 95:-0.7663 96:-0.629608 97:-0.70877 98:-0.405011 
0.1140565754006781 0.1989993409350322 0 0.4793307771043061 0 0.2377293672929997 1:-0.447214 2:0.894427 3:-0.719585 4:0.674238 5:-0.900613 6:0.382921 7:-0.980081 8:0.189331 9:-0.994327 10:0.091128 11:-0.999051 12:0.012413 13:-0.989558 14:0.136541 15:-0.996678 16:0.043445 17:-0.995345 18:-0.070128 19:-0.993503 20:-0.109389 21:-0.997476 22:-0.040877 23:-0.995932 24:0.087331 25:-0.999162 26:0.018477 27:-1 29:-1 31:-0.997539 32:0.034634 33:-0.990565 34:0.132763 35:-0.998769 36:0.017317 37:-0.950372 38:-0.2577 39:-0.454764 40:-0.69211 41:0.292058 42:-0.819498 43:0.908073 44:-0.403529 45:0.986051 46:-0.153903 47:0.974589 48:-0.219837 49:0.987813 50:-0.098994 51:0.999436 52:0.021453 53:0.997555 54:0.065551 55:0.994054 56:0.103378 57:0.997457 58:-0.037691 59:0.996022 60:-0.087381 61:0.945759 62:0.168276 63:0.917605 64:0.236066 65:0.919272 66:-0.314721 67:0.580135 68:-0.795958 69:0.135845 70:-0.958869 71:-0.404061 72:-0.02451 73:-0.585667 74:0.789326 75:-0.313528 76:0.731564 85:0.281606 86:0.048275 87:0.885049 88:0.151723 89:0.080459 90:0.013793 
0 0.03583479143735318 0 0 0.04610685095187297 0 1:0.961524 2:-0.274721 3:-0.27944 4:-0.100918 5:-0.997334 6:0.03752 7:-0.990975 8:0.126991 9:-0.995282 10:0.066381 11:-1 13:-1 15:-1 17:-1 19:-1 21:-0.999364 22:-0.020368 23:-0.998132 24:-0.059832 25:-0.995585 26:-0.090818 27:-0.993884 28:-0.110432 29:-0.993884 30:-0.110432 31:-0.987368 32:0.039714 33:-0.980581 34:0.148088 35:-0.980581 36:-0.100059 37:-0.600356 38:0.267684 39:-0.009127 40:0.997845 41:-0.292058 42:0.931054 43:-0.117408 44:0.436846 45:0.612877 46:-0.576369 47:0.868497 48:-0.317477 49:0.995626 50:-0.039844 51:0.980561 52:-0.177086 53:0.98294 54:-0.060194 55:0.991763 56:0.126805 57:0.995912 58:0.085275 59:0.997955 60:0.063814 61:0.998264 62:0.058881 63:0.997216 64:0.073614 65:0.995894 66:0.035663 67:0.99421 68:-0.08674 69:0.995874 70:-0.088027 71:0.995797 72:-0.082571 73:0.986994 74:-0.15366 75:0.974749 76:-0.218002 77:0.960175 78:-0.278667 79:0.939268 80:-0.339825 81:0.427788 82:-0.041238 83:-0.606969 84:0.641076 85:-0.303046 86:0.303046 87:-0.091268 88:0.182536 89:-0.374199 90:0.748398 91:-0.569204 92:0.806501 93:-0.736994 94:0.634953 95:-0.922294 96:0.1876 97:-1 99:-1 
0 0 0.05195024759214335 0.6398385596030062 0 0 1:-1 3:-0.979283 4:-0.16829 5:-0.961822 6:-0.27111 7:-0.951287 8:-0.306423 9:-0.97342 10:-0.22308 11:-0.983309 12:-0.181228 13:-0.987617 14:-0.155588 15:-0.992814 16:-0.118141 17:-0.993884 18:-0.110432 19:-0.993884 20:-0.110432 21:-0.993884 22:-0.110432 23:-0.997753 24:-0.040567 25:-0.990251 26:-0.079195 27:-0.970752 28:-0.237586 29:-0.991469 30:-0.069296 31:-0.979054 32:0.129073 33:-0.851879 34:0.181919 35:-0.193609 36:-0.731382 38:-0.510204 39:-0.183673 41:-0.877551 43:-1 45:-0.513946 46:-0.147165 47:0.757273 48:-0.532059 49:0.92905 50:-0.320523 51:0.984639 52:-0.085043 53:0.992593 54:0.118972 55:0.997951 56:0.032907 57:0.994169 58:0.070457 59:0.98806 60:0.144268 61:0.997501 62:0.030196 63:0.984767 64:0.123743 65:0.961639 66:0.268833 67:0.932728 68:0.358242 69:0.970807 70:0.151588 71:0.916316 72:0.202031 73:0.713084 74:0.692676 75:0.230892 76:0.230892 77:-0.188998 78:0.314997 79:-0.537757 80:0.777613 81:-0.801383 82:-0.127694 83:-0.175371 84:0.071053 85:0.606092 86:0.606092 87:0.115446 88:0.115446 90:-0.530612 92:-0.55102 94:0.836735 95:0.432923 96:0.820678 97:0.758245 98:0.639312 99:0.874157 100:0.485643 
0 0 0 0 0.1330062033932896 0 1:-0.196116 2:-0.980581 3:-0.666407 4:-0.621374 5:-0.829438 6:-0.537381 7:-0.71093 8:-0.701803 9:-0.837084 10:-0.526773 11:-0.825616 12:-0.542685 13:-0.710898 14:-0.702735 15:-0.773459 16:-0.630602 17:-0.846199 18:-0.520091 19:-0.917632 20:-0.397182 21:-0.900985 22:-0.433074 23:-0.916573 24:-0.39375 25:-0.952872 26:-0.290413 27:-0.987433 28:-0.077443 29:-0.996241 30:0.056642 31:-0.991897 32:0.125465 33:-0.996313 34:0.081256 35:-0.981505 36:0.159998 37:-0.963319 38:0.267645 39:-0.973195 40:0.228724 41:-0.945292 42:0.30934 43:-0.920397 44:0.382705 45:-0.967684 46:0.236099 47:-0.846634 48:0.446397 49:-0.428395 50:0.591661 51:0.721289 52:0.115446 53:0.897959 54:0.306122 55:0.653061 56:0.489796 57:0.114286 58:0.085714 59:0.530612 61:0.940226 62:0.144308 63:0.742971 64:0.620522 65:0.852045 66:0.183834 67:0.973791 68:-0.151183 69:0.984736 70:0.122875 71:0.977107 72:-0.068135 73:0.977455 74:-0.183139 75:0.997563 76:-0.019799 77:0.984844 78:-0.13308 79:0.980728 80:-0.180782 81:0.996812 82:-0.068894 83:0.967912 84:0.170839 85:0.963345 86:0.225877 87:0.997905 88:0.012907 89:0.997402 90:0.057278 91:0.994074 92:0.106113 93:0.990071 94:0.140383 95:0.828868 96:0.485939 97:0.500586 98:0.777058 100:1 
0 0.001194860475022549 0 0 0.3714552724117216 0 1:-0.707107 2:0.707107 3:-0.916316 4:0.202031 5:-0.987204 6:-0.103944 7:-0.972464 8:-0.184402 9:-0.984072 10:0.106265 11:-0.994169 12:0.070457 13:-1 15:-1 17:-1 19:-1 21:-1 23:-1 25:-0.995587 26:-0.070877 27:-0.994484 28:-0.088596 29:-1 31:-0.982991 32:-0.15495 33:-0.986393 34:-0.12396 35:-0.729368 36:0.063888 37:0.623795 38:0.383326 39:0.787387 40:0.595724 41:0.790791 42:0.505076 43:1 45:0.986129 46:0.140083 47:0.986776 48:0.154711 49:0.995746 50:0.085289 51:0.999291 52:0.014215 53:1 55:1 57:1 59:1 61:0.997873 62:-0.042645 63:0.995746 64:-0.085289 65:0.999291 66:-0.014215 67:0.988903 68:0.112066 69:0.986129 70:0.140083 71:1 73:-0.219362 74:0.505076 75:-0.404061 76:0.404061 81:-0.571429 83:-0.842061 84:-0.255551 85:-0.447214 86:-0.894427 87:-0.632852 88:0.249526 89:-0.404061 90:-0.02451 92:-0.857143 94:-0.142857 
0 0 0 0 0.3244178499980819 0 1:-0.707107 2:-0.707107 3:-0.868497 4:-0.317477 5:-1 7:-1 9:-0.989527 10:-0.064536 11:-0.961251 12:-0.238784 13:-0.948683 14:-0.316228 15:-0.948683 16:-0.316228 17:-0.948683 18:-0.316228 19:-0.948683 20:-0.316228 21:-0.955235 22:-0.295051 23:-0.962052 24:-0.272751 25:-0.966801 26:-0.255016 27:-0.961816 28:-0.267251 29:-0.933716 30:-0.350667 31:-0.932675 32:-0.353756 33:-0.960776 34:-0.270341 35:-0.978274 36:-0.199005 37:-0.990471 38:-0.133708 39:-0.992278 40:-0.124035 41:-0.991388 42:-0.127957 43:-0.967367 44:-0.233859 45:-0.954967 46:-0.277506 47:-0.983244 48:-0.103258 49:-0.98848 50:0.07099 51:-0.960203 52:0.245238 53:-0.869801 54:0.443862 55:-0.736688 56:0.659244 57:-0.101015 58:0.707107 59:0.678245 60:0.707107 61:0.806501 62:0.569204 63:0.898856 64:0.436521 65:0.928752 66:0.364345 67:0.95561 68:0.288341 69:0.976389 70:0.20468 71:0.989294 72:0.141155 73:0.994888 74:0.096328 75:0.996546 76:0.083045 77:0.996546 78:0.083045 79:0.988726 80:-0.053687 81:0.980581 82:-0.180107 83:0.980581 84:0.036021 85:0.982252 86:0.15038 87:0.988697 88:-0.026029 89:0.991708 90:-0.128293 91:0.990425 92:-0.137873 93:0.854661 94:-0.369908 95:0.639791 96:-0.732798 97:0.747479 98:-0.607563 99:0.928477 100:-0.371391 
0 0 0.01276196487689414 0 0 0 1:-0.894427 2:-0.447214 3:-0.457828 4:0.606831 5:-0.154887 6:0.974865 8:0.734694 13:-0.318367 14:0.42449 15:-0.556347 16:0.826979 17:-0.468984 18:0.865925 19:-0.87173 20:0.338629 21:-0.983784 22:0.178639 23:-0.97485 24:0.210877 25:-0.948683 26:0.277506 27:-0.948683 28:-0.200062 29:-0.96691 30:-0.247593 31:-0.952449 32:-0.278107 33:-0.902415 34:-0.420832 35:-0.976302 36:-0.176799 37:-0.959165 38:-0.258434 39:-0.943787 40:-0.328997 41:-0.960148 42:-0.278039 43:-0.97733 44:-0.209149 45:-0.989432 46:-0.136966 47:-0.99686 48:-0.062951 49:-0.995289 50:-0.033639 51:-0.966235 52:-0.241082 53:-0.966977 54:-0.254359 55:-0.593965 56:-0.536246 57:0.142857 58:-0.857143 59:0.897959 60:-0.102041 61:0.808723 62:0.461784 63:0.814468 64:0.517486 65:0.971847 66:0.234957 67:0.979729 68:0.199905 69:0.984496 70:0.174756 71:0.987918 72:0.154551 73:0.991796 74:0.115446 75:0.999385 76:0.008658 77:1 79:1 81:0.998987 82:0.020307 83:0.99524 84:0.095442 85:0.998582 86:0.02843 87:1 89:0.993297 90:0.054447 91:0.970752 92:0.237586 93:0.992079 94:0.064346 95:0.948291 96:0.219043 97:0.443053 98:0.260248 99:-0.948683 100:-0.316228 
0.01493496303403557 0.2025198666351368 0 0 0.3151987645630477 0.1297555695234102 1:1 3:0.684122 4:0.511101 5:0.383326 6:0.909509 7:0.127775 8:0.969836 10:0.714286 12:0.142857 13:0.191663 14:0.383326 15:0.447214 16:0.894427 17:-0.338895 18:0.595549 19:-0.933198 20:0.357581 21:-0.952082 22:0.302341 23:-0.965713 24:0.134249 25:-0.974092 26:-0.146695 27:-0.984266 28:-0.166605 29:-0.995037 30:-0.099504 31:-0.997873 32:-0.042645 33:-0.994503 34:-0.039246 35:-0.972517 36:-0.196229 37:-0.972517 38:-0.196229 39:-0.994503 40:-0.039246 41:-0.987204 42:0.103944 43:-0.970143 44:0.242536 45:-0.987204 46:0.103944 47:-0.958158 48:0.101015 49:-0.790791 50:0.505076 51:-0.505076 52:0.790791 53:-0.101015 54:0.958158 55:-0.191663 56:0.954755 57:-0.447214 58:0.894427 59:-0.191663 60:0.383326 61:0.118864 62:-0.079243 63:0.594322 64:-0.396214 65:0.865374 66:-0.486565 67:0.932021 68:-0.350295 69:0.966369 70:-0.241311 71:0.989949 72:-0.141421 73:0.978631 74:-0.199201 75:0.972747 76:-0.22961 77:0.983163 78:-0.177908 79:0.991694 80:-0.108612 81:0.998339 82:-0.021722 83:0.996691 84:-0.053158 85:0.992278 86:-0.124035 87:0.974704 88:0.103826 89:0.957925 90:0.285636 91:0.943528 92:0.329294 93:0.668807 94:0.250802 95:0.133761 96:0.05016 97:0.412082 98:0.117738 99:0.961524 100:0.274721 
0 0 0.138603390787453 0 0 0 1:-0.707107 2:-0.707107 3:-0.833261 4:-0.532077 5:-0.931054 6:-0.292058 7:-0.998953 8:0.006454 9:-0.964392 10:0.219423 11:-0.600187 12:0.200062 13:-0.039844 14:-0.008854 15:-0.697276 16:-0.15495 17:-0.973843 18:-0.226859 19:-0.965507 20:-0.255067 21:-0.914515 22:-0.392911 23:-0.81797 24:-0.553292 25:-0.694665 26:-0.717306 27:-0.592024 28:-0.801452 29:-0.316972 30:-0.475457 31:-0.072154 32:-0.072154 33:-0.548369 34:-0.548369 35:-0.83861 36:-0.38963 37:-0.997622 38:0.024014 39:-0.984544 40:0.156092 41:-0.986825 42:0.052226 43:-0.989261 44:-0.05541 45:-0.967468 46:0.203979 47:-0.804133 48:0.516435 49:-0.657019 50:0.752016 51:-0.72646 52:0.68517 53:-0.003294 54:0.688425 55:0.659371 56:0.412947 57:0.484341 58:-0.665637 59:0.447214 60:-0.894427 61:0.538482 62:-0.803159 63:0.839666 64:-0.501974 65:0.9526 66:-0.20079 67:0.997744 68:-0.031748 69:0.990975 70:-0.126991 71:0.995693 72:-0.060609 73:0.994168 74:0.053126 75:0.978131 76:0.199222 77:0.988537 78:0.133935 79:0.995169 80:0.093868 81:0.990384 82:0.137459 83:0.970282 84:0.230764 85:0.967004 86:0.245655 87:0.988638 88:0.147378 89:0.996308 90:0.051951 91:0.997636 92:0.03797 93:0.992435 94:0.121503 95:0.928375 96:0.33509 97:0.638429 98:0.625718 99:0.110432 100:0.993884 
0 0 0 0 0.8884196337246777 0 1:-0.447214 2:-0.894427 3:-0.353652 4:-0.933182 5:-0.537295 6:-0.779833 7:-0.792429 8:-0.594322 9:-0.594322 10:-0.792429 11:-0.64179 12:-0.760654 13:-0.779797 14:-0.583568 15:-0.961524 16:-0.274721 17:-0.981828 18:-0.179507 19:-0.991636 20:-0.12814 21:-0.993654 22:-0.112375 23:-0.992507 24:-0.122091 25:-0.996691 26:-0.053158 27:-0.998252 28:-0.031552 29:-0.993884 30:-0.110432 31:-0.940499 32:-0.312923 33:-0.908552 34:-0.41676 35:-0.907565 36:-0.35984 37:-0.973256 38:0.077026 39:-0.983072 40:0.182523 41:-0.986129 42:0.140083 43:-1 45:-0.924591 46:0.319438 47:-0.646627 48:0.662129 49:-0.372068 50:0.914172 51:-0.651267 52:0.741618 53:-0.558596 54:0.814147 55:-0.033724 56:0.638877 57:1 59:1 61:0.987204 62:-0.103944 63:0.974408 64:-0.207888 65:0.995735 66:-0.034648 67:0.995587 68:0.070877 69:0.993643 70:0.066683 71:0.997054 72:-0.076697 73:0.991979 74:0.079102 75:0.990947 76:0.13397 77:0.990607 78:0.078299 79:0.982252 80:-0.15038 81:0.985934 82:-0.164862 83:0.975619 84:-0.198656 85:0.939793 86:-0.341743 87:0.968927 88:-0.237724 89:0.863378 90:-0.415112 91:0.669979 92:-0.733867 93:0.484341 94:-0.867667 95:0.010961 96:0.158779 97:0.059837 98:0.677631 99:1 
0.5728109525496358 0.4484283655458582 0.2842649068395184 0.9274973565920888 0.6796672372946988 0.4115409883300351 1:-0.242536 2:0.970143 3:-0.034648 4:0.995735 5:0.505076 6:0.790791 7:0.874474 8:0.303046 9:0.874474 10:0.303046 11:0.707107 12:0.707107 13:0.707107 14:0.505076 15:0.707107 16:-0.707107 17:0.958158 18:-0.101015 19:0.924591 20:-0.319438 21:0.954755 22:-0.191663 23:1 25:0.969836 26:-0.127775 27:0.623795 28:-0.383326 29:-1 31:-0.856043 32:0.475457 33:-0.91536 34:0.384363 35:-0.978007 36:0.135526 37:-0.987204 38:0.103944 39:-0.973125 40:0.117207 41:-0.981919 42:-0.188303 43:-0.989949 44:-0.141421 45:-0.995044 46:0.057399 47:-0.996723 48:0.080651 49:-0.998738 50:0.03287 51:-0.993087 52:-0.076665 53:-0.987305 54:-0.153643 55:-0.995044 56:-0.057399 57:-0.989949 58:0.141421 59:-0.908073 60:-0.363123 61:-0.933182 62:-0.353652 63:-0.662129 64:-0.646627 65:-0.684122 66:-0.511101 67:-0.714286 68:0.285714 69:0.140913 70:0.833657 71:0.986394 72:-0.164399 73:0.998056 74:-0.023486 75:0.994484 76:-0.088596 77:0.995007 78:-0.096984 79:0.997228 80:-0.074361 81:0.996228 82:-0.084274 83:0.994129 84:-0.10015 85:1 87:0.983355 88:0.1681 89:0.994452 90:0.056033 91:0.992225 92:0.093942 93:0.961572 94:0.25311 95:0.471005 96:0.476691 97:-0.576577 98:0.634234 
0.05346941785272524 0.03090578664919977 0.1550874941450169 0.241011056494021 0.2986162910843141 0.03210544458799852 11:0.171979 12:0.064492 13:0.937629 14:0.343958 15:0.990904 16:0.05016 17:0.843154 18:-0.439389 19:0.363286 20:0.233378 22:0.632653 25:0.040024 26:-0.008005 27:0.86051 28:-0.172102 29:0.280166 30:-0.056033 31:-0.529819 32:0.151377 33:-0.74617 34:-0.186138 35:-0.532752 36:-0.763117 37:-0.971971 38:-0.227687 39:-0.996953 40:-0.024749 41:-0.962298 42:0.232331 43:-0.97566 44:0.083792 45:-0.976624 46:0.07549 47:-0.950103 48:0.311831 49:-0.955759 50:0.293725 51:-0.968864 52:0.247086 53:-0.970143 54:0.242536 55:-0.987813 56:0.098994 57:-0.972713 58:0.150481 59:-0.93177 60:0.153459 61:-0.916623 62:-0.399357 63:-0.895941 64:-0.443951 65:0.559661 66:-0.252485 67:0.966649 68:-0.251972 69:0.976761 70:-0.158335 71:1 73:0.999639 74:-0.009391 75:0.997175 76:-0.073566 77:0.997376 78:-0.072359 79:0.997665 80:-0.068256 81:0.9952 82:-0.093516 83:0.992278 84:-0.124035 85:0.989979 86:-0.075325 87:0.976515 88:0.209972 89:0.984519 90:-0.094359 91:0.99528 92:-0.057036 93:0.990488 94:-0.096057 95:0.539121 96:0.171098 97:-0.405651 98:0.909743 99:-0.581238 100:0.813733 
0.01392085287728568 0.05593289173828592 0.2147917731194877 0.4265486345320961 0.1672909715512481 0.05600460222067662 5:0.38963 6:0.38963 7:0.476215 8:0.476215 13:0.461784 14:0.461784 15:0.572884 16:0.010142 17:0.313528 18:-0.935646 19:0.008039 20:-0.99835 21:-0.106788 22:-0.992411 23:-0.559043 24:-0.267606 25:-0.946206 26:0.308026 27:-0.983316 28:0.176793 29:-0.954071 30:0.294538 31:-0.968863 32:0.240239 33:-0.974725 34:0.221237 35:-0.967554 36:0.252405 37:-0.973124 38:0.230208 39:-0.975452 40:0.220143 41:-0.980573 42:0.194918 43:-0.988405 44:0.144489 45:-0.93639 46:0.066885 47:-0.16285 48:0.011632 49:-0.609731 50:-0.05543 51:-0.977587 52:-0.178049 53:-0.909242 54:-0.380045 55:-0.721897 56:-0.683175 57:0.303046 58:-0.707107 59:0.819379 60:-0.532748 61:0.687915 62:-0.257968 63:0.040158 64:-0.007301 65:0.803159 66:-0.146029 67:0.942407 68:-0.313382 69:0.939181 70:-0.324643 71:0.984826 72:-0.146098 73:0.99543 74:0.061222 75:0.988384 76:-0.095164 77:0.991926 78:-0.092213 79:0.998502 80:-0.027044 81:0.992961 82:-0.101724 83:0.957908 84:0.229154 85:0.960946 86:0.274118 87:0.975781 88:0.215427 89:0.865611 90:0.266717 91:0.100652 92:0.914735 93:-0.373574 94:0.886891 95:-0.305651 96:0.458477 97:0.140238 98:-0.175297 99:0.624695 100:-0.780869 
0 0 0.1821137788018179 1.075224254643972 0 0.01155188897603122 7:-0.169806 8:-0.113204 9:-0.781108 10:-0.520739 11:-0.10835 12:-0.834488 13:0.054998 14:-0.97261 15:-0.326023 16:-0.864748 17:-0.887072 18:-0.291635 19:-0.980581 20:-0.196116 21:-0.965228 22:-0.006258 23:-0.939942 24:0.306451 25:-0.972453 26:-0.095603 27:-0.980581 28:0.020012 29:-0.983623 30:0.177844 31:-0.991407 32:0.129467 33:-0.997852 34:0.032367 35:-0.997569 36:-0.048737 37:-0.980095 38:-0.16054 39:-0.931193 40:-0.360293 41:-0.96463 42:-0.249772 43:-0.943658 44:-0.303729 45:-0.894427 46:-0.447214 47:-0.894427 48:-0.447214 49:-0.528628 50:-0.76447 51:-0.567409 52:-0.600187 53:-0.795918 55:0.673469 57:0.970676 58:-0.180702 59:0.961316 60:-0.262716 61:0.990239 62:-0.13878 63:0.995459 64:-0.091227 65:0.997564 66:-0.069391 67:0.998529 68:-0.047102 69:0.99996 70:-0.001273 71:0.996075 72:-0.074775 73:0.995831 74:-0.025695 75:0.997925 76:0.058161 77:0.999793 78:0.005816 79:0.994957 80:-0.081002 81:0.881701 82:0.198245 83:0.590824 84:0.739315 85:-0.106872 86:0.932566 87:-0.561141 88:0.765694 89:-0.817949 90:0.566742 91:-0.839666 92:0.419833 93:-0.182536 94:0.091268 97:-0.136499 98:0.227498 99:-0.514496 100:0.857493 
0 0 0 0.7811290894446719 0 0 1:-0.789352 2:0.613941 3:-0.893905 4:0.200944 5:-0.987227 6:-0.154334 7:-0.994446 8:-0.067102 9:-0.999251 10:0.013522 11:-0.996006 12:0.072119 13:-0.993589 14:0.067366 15:-0.992737 16:-0.057044 17:-0.993627 18:-0.077369 19:-0.996549 20:0.023742 21:-0.989323 22:-0.02809 23:-0.974656 24:-0.192078 25:-0.975185 26:-0.219154 27:-0.982469 28:-0.18538 29:-0.989302 30:-0.137811 31:-0.996028 32:-0.086957 33:-0.946529 34:-0.261414 35:-0.895534 36:-0.44454 37:-0.924323 38:-0.375038 39:-0.813517 40:-0.348136 41:0.065066 42:-0.555541 43:0.747005 44:-0.629577 45:0.895198 46:-0.34161 47:0.989171 48:-0.130848 49:0.99639 50:-0.043616 51:0.999633 52:0.013944 53:0.9989 54:0.041833 55:0.997449 56:0.067888 57:0.995549 58:0.092797 59:0.996365 60:0.082429 61:0.998181 62:0.059065 63:0.98846 64:0.127962 65:0.976642 66:0.213635 67:0.985804 68:0.157019 69:0.989036 70:0.117075 71:0.911015 72:0.345501 73:0.852736 74:0.521551 75:0.877372 76:0.477625 77:0.602369 78:0.447214 79:-0.346819 80:0.447214 81:-0.852376 82:0.505557 83:-0.752981 84:0.643459 85:-0.505076 86:0.505076 87:-0.129877 88:0.129877 93:-0.226408 94:-0.339612 95:-0.520739 96:-0.781108 97:-0.763718 98:-0.441496 99:-1 
0.3089469967642027 0.2447868867498069 0.1967905362003437 0.9473750410912086 0 0.2612856541794215 1:-0.447214 2:-0.894427 3:-0.709617 4:-0.578251 5:-0.960659 6:-0.277154 7:-0.939037 8:-0.337969 9:-0.922196 10:-0.382348 11:-0.960328 12:-0.237712 13:-0.994258 14:-0.10367 15:-0.997379 16:-0.047328 17:-0.996859 18:-0.022426 19:-0.977228 20:-0.16259 21:-0.965251 22:-0.253053 23:-0.983888 24:-0.144715 25:-0.997345 26:-0.069928 27:-0.994399 28:-0.101385 29:-0.98183 30:-0.16259 31:-0.944518 32:-0.300286 33:-0.915109 34:-0.40262 35:-0.902498 36:-0.429811 37:-0.551955 38:-0.40962 39:0.399356 40:-0.305192 41:0.976236 42:-0.193039 43:0.991469 44:-0.069296 45:0.99969 46:0.011799 47:0.998985 48:0.038615 49:0.995006 50:0.083496 51:0.987482 52:0.147948 53:0.981097 54:0.192192 55:0.975764 56:0.21778 57:0.976404 58:0.21471 59:0.981737 60:0.189121 61:0.986444 62:0.162094 63:0.990734 64:0.134109 65:0.981028 66:0.177361 67:0.963451 68:0.260685 69:0.91419 70:0.380103 71:0.850018 72:0.516507 73:0.159052 74:0.350933 75:-0.775667 76:0.067922 77:-0.99247 78:-0.076045 79:-0.982562 80:-0.176104 81:-0.580344 82:-0.116069 83:-0.080047 84:-0.016009 85:-0.428571 87:-0.938776 89:-0.97696 90:-0.14198 91:-0.950778 92:-0.303321 93:-0.763752 94:-0.558349 95:-0.562741 96:-0.821523 97:-0.437897 98:-0.889177 99:-0.316228 100:-0.948683 
0.2029943343050727 0.1176451337428858 0.5000870601828191 0.6906000617424254 0.2377917811737375 0.3434509677091234 1:0.316228 2:-0.948683 3:0.083897 4:-0.251691 8:-0.204082 10:-0.938776 12:-0.326531 13:0.050626 14:-0.405011 15:-0.027446 16:-0.900684 17:-0.806489 18:-0.429632 19:-0.943893 20:-0.329759 21:-0.95975 22:-0.274556 23:-0.980768 24:-0.195151 25:-0.982451 26:-0.186461 27:-0.44129 28:-0.082742 29:-0.281367 30:-0.049653 31:-0.984698 32:-0.174241 33:-0.98161 34:-0.190647 35:-0.980581 36:-0.196116 37:-0.981886 38:-0.188996 39:-0.986157 40:-0.165694 41:-0.879298 42:-0.43522 43:-0.904029 44:-0.316972 45:-1 47:-1 49:0.265306 51:0.998731 52:-0.030506 53:0.996898 54:-0.074571 55:0.999436 56:-0.013558 57:0.986393 58:0.12396 59:0.982799 60:0.170886 61:0.997176 62:0.071326 63:0.98622 64:0.15785 65:0.987671 66:0.153547 67:0.983841 68:0.16403 69:0.958529 70:0.284015 71:0.960467 72:0.278329 73:0.978799 74:0.151377 75:0.946203 76:0.129877 77:0.731016 78:0.649384 79:0.537381 80:0.829438 81:-0.094052 82:0.42499 83:-0.954967 84:-0.277506 85:-0.992669 86:-0.045175 87:-0.408163 91:-0.033961 92:-0.050942 93:-0.441496 94:-0.662244 95:-0.389062 96:-0.905324 97:-0.178189 98:-0.978064 100:-1 
0.0516642686954107 0.03032610178097487 0 0.05873802744694325 0 0.2641734515494734 1:1 3:0.967534 4:0.200062 5:0.696992 6:0.232331 7:0.096804 8:0.032268 9:-0.474594 10:0.237297 11:-0.910665 12:0.356169 13:-0.973586 14:0.003374 15:-0.996505 16:-0.063104 17:-0.999527 18:-0.007594 19:-0.994642 20:-0.086065 21:-0.993329 22:-0.114492 23:-0.995364 24:-0.096002 25:-0.980491 26:-0.182239 27:-0.970878 28:-0.239506 29:-0.972949 30:-0.230967 31:-0.981515 32:-0.186124 33:-0.989317 34:-0.145384 35:-0.986049 36:-0.165859 37:-0.98769 38:-0.154494 39:-0.992158 40:-0.124858 41:-0.988435 42:-0.150395 43:-0.988075 44:-0.152866 45:-0.991798 46:-0.12733 47:-0.985832 48:-0.163753 49:-0.800474 50:-0.343768 51:-0.180107 52:-0.852348 53:0.444863 54:-0.490357 55:0.990948 56:0.134209 57:0.991864 58:0.1272 59:0.98822 60:0.012962 61:0.980819 62:-0.189582 63:0.989956 64:-0.131475 65:0.752001 66:-0.068364 67:0.121946 68:-0.011086 69:0.509678 70:-0.023167 71:0.995714 72:-0.069911 73:0.981301 74:-0.178425 75:0.866358 76:-0.417002 77:0.713245 78:-0.657245 79:0.808387 80:0.115605 81:0.594995 82:0.66312 83:0.0525 84:0.970275 86:0.428571 87:-0.163265 88:0.122449 89:-0.669388 90:0.502041 91:-0.42449 92:0.318367 97:0.305651 98:0.203767 99:0.83205 100:0.5547 
0.1038135695291037 0.3541364376906758 0 0.2776074054126266 0.3058874486744984 0.197664046811939 1:0.707107 2:-0.707107 3:0.86252 4:-0.331907 5:0.996858 6:0.019361 7:0.969629 8:0.187155 9:0.94204 10:0.332267 11:0.913251 12:0.40177 13:0.730145 14:0.365072 15:0.255551 16:0.127775 17:-0.109522 18:0.219043 19:-0.346819 20:0.693637 21:-0.610489 22:0.680659 23:-0.8935 24:0.310126 25:-0.984878 26:0.169637 27:-0.991084 28:0.13139 29:-0.995587 30:0.070877 31:-0.999685 32:0.005063 33:-0.999323 34:-0.025743 35:-0.99825 36:-0.055489 37:-0.988679 38:-0.131662 39:-0.980924 40:-0.194293 41:-0.983154 42:-0.182444 43:-0.986679 44:-0.15787 45:-0.99372 46:-0.098756 47:-0.997437 48:-0.069955 49:-0.995837 50:-0.089654 51:-0.992744 52:-0.116721 53:-0.988158 54:-0.151155 55:-0.978273 56:-0.200423 57:-0.965077 58:-0.258961 59:-0.200933 60:-0.168197 61:0.839876 62:-0.022426 63:0.998156 64:0.040649 65:0.995977 66:0.088688 67:0.997203 68:0.072645 69:0.993145 70:0.032955 71:0.924051 72:-0.259735 73:0.876451 74:-0.477781 75:0.919134 76:-0.382318 77:0.955163 78:-0.289424 79:0.976222 80:-0.202313 81:0.989609 82:-0.142713 83:0.992534 84:-0.120626 85:0.965468 86:-0.206655 87:0.912695 88:-0.385356 89:0.712966 90:-0.614182 91:0.435436 92:-0.869547 93:0.62004 94:-0.469459 95:0.943283 96:0.127264 97:0.989696 98:0.104062 99:1 
0 0 0 0 0.4878820720879024 0 1:-0.894427 2:-0.447214 3:-0.909629 4:-0.005835 5:-0.927575 6:0.366152 7:-0.966558 8:0.206135 9:-0.994994 10:0.094781 11:-0.988268 12:0.145635 13:-0.803159 14:0.146029 15:-0.281106 16:0.05111 17:-0.242437 18:0.034634 19:-0.767716 20:0.109674 21:-0.991507 22:0.128589 23:-0.994207 24:0.106347 25:-0.99686 26:0.062951 27:-0.999494 28:0.010153 29:-1 31:-1 33:-1 35:-0.979592 37:-0.44898 39:-0.067922 40:0.045282 41:-0.509419 42:0.339612 43:-0.814201 44:0.576473 45:-0.747905 46:0.657341 47:-0.364811 48:0.612296 49:0.525158 50:0.365789 51:0.974454 52:0.134573 53:0.983077 54:-0.081351 55:0.964435 56:-0.239344 57:0.928752 58:-0.361131 59:0.930599 60:-0.363794 61:0.946272 62:-0.32257 63:0.963005 64:-0.2623 65:0.97993 66:-0.198567 67:0.949236 68:-0.297036 69:0.921067 70:-0.388358 71:0.946054 72:-0.316058 73:0.967067 74:-0.254315 75:0.971395 76:-0.23691 77:0.973698 78:-0.227745 79:0.971443 80:-0.237125 81:0.965325 82:-0.259079 83:0.953939 84:-0.298181 85:0.91536 86:-0.384363 87:0.853473 88:-0.510899 89:0.890319 90:-0.362253 91:0.979435 92:-0.067922 93:0.987813 94:-0.098994 95:0.971971 96:-0.227687 97:0.970143 98:-0.242536 99:0.970143 100:-0.242536 
0.5696734199026118 0.4591349041622413 0.6122403574803987 0.5107516725169978 1.372607227895583 0.8884882509555853 3:0.533938 4:-0.533938 5:0.802678 6:-0.574508 7:0.894427 8:-0.447214 9:0.896582 10:-0.438087 11:0.9763 12:-0.100395 13:0.943982 14:-0.237297 15:0.894427 16:-0.447214 17:0.894427 18:-0.447214 19:0.894427 20:-0.447214 21:0.894427 22:-0.447214 23:0.911036 24:-0.407116 25:0.945361 26:-0.324247 27:0.904393 28:-0.423155 29:-0.171041 30:-0.330255 31:-0.970143 32:-0.242536 33:-0.97258 34:-0.222737 35:-0.995125 36:-0.039598 37:-0.408163 38:-0.591837 40:-1 42:-0.897959 44:-0.142857 45:-0.273804 46:-0.547608 47:-0.647762 48:-0.522941 49:-0.992491 50:0.121632 51:-0.988423 52:0.151172 53:-0.976615 54:0.210733 55:-0.973113 56:0.229737 57:-0.838116 58:0.179596 59:-0.099776 60:0.021381 61:-0.640379 62:0.128076 63:-0.335446 64:-0.210462 65:0.655476 66:-0.725183 67:0.912055 68:-0.379152 69:0.94908 70:-0.314392 71:0.946188 72:-0.322557 73:0.76435 74:-0.286631 75:0.057326 76:-0.021497 77:0.688519 78:-0.086065 79:0.992278 80:-0.124035 81:0.988628 82:-0.144611 83:0.975121 84:-0.220744 85:0.989138 86:-0.13532 87:0.997367 88:-0.052798 89:0.77551 91:0.020408 93:0.712758 94:-0.178189 95:0.984767 96:-0.123743 97:0.974145 98:0.109522 99:0.894427 100:0.447214 
0 0 0 0 0.5872516243475291 0.06183509700293248 1:-0.843661 2:-0.536875 3:-0.94257 4:-0.19722 5:-0.946939 6:0.159184 7:-0.820408 8:0.538776 9:-0.89028 10:0.410325 11:-0.811752 12:0.202938 13:-0.197988 14:0.049497 15:-0.428571 17:-0.97551 18:0.04898 19:-0.722449 20:0.555102 21:-0.724609 22:0.476451 23:-0.966039 24:-0.150426 25:-0.980424 26:-0.196832 27:-0.977862 28:-0.208724 29:-0.972958 30:-0.230649 31:-0.495842 32:-0.120204 39:-0.0105 40:0.0175 41:-0.335997 42:0.559995 43:-0.096445 44:0.702846 45:0.82924 46:0.360413 47:0.425939 48:0.14198 49:0.082141 50:0.164283 51:0.365072 52:0.730145 53:0.5639 54:0.810324 55:0.71469 56:0.698363 57:0.773459 58:0.630602 59:0.811119 60:0.584284 61:0.831396 62:0.555625 63:0.907803 64:0.39514 65:0.962882 66:0.264624 67:0.981232 68:0.188516 69:0.992547 70:0.085119 71:0.999022 72:-0.016692 73:0.994688 74:-0.090612 75:0.995151 76:-0.094612 77:0.996913 78:-0.069732 79:0.979256 80:-0.183709 81:0.977763 82:-0.19875 83:0.993513 84:-0.108261 85:0.997873 86:-0.042645 87:0.993907 88:-0.049497 89:0.975017 90:-0.202938 91:0.96007 92:0.019741 93:0.950873 94:0.259211 95:0.964449 96:-0.094292 97:0.834172 98:0.140437 99:0.6 100:0.8 
0.0009240716438754505 0.2237896611610001 0 0 0 0 1:0.871576 2:-0.490261 3:0.424542 4:-0.796193 5:-0.100975 6:-0.690109 7:-0.762055 8:0.127639 9:-0.938994 10:0.343926 11:-0.882255 12:0.32082 13:-0.306871 14:0.11159 15:-0.278119 16:0.06544 17:-0.874089 18:0.205668 19:-0.970458 20:0.240969 21:-0.962466 22:0.267876 23:-0.936708 24:0.345148 25:-0.936036 26:0.3493 27:-0.954545 28:0.297537 29:-0.951724 30:0.306738 31:-0.774435 32:0.258145 33:-0.193609 34:0.064536 35:-0.408163 37:-0.997845 38:0.009127 39:-0.933209 40:0.282931 41:-0.883057 42:0.467488 43:-0.854631 44:0.518172 45:-0.074448 46:0.562857 47:0.815921 48:0.542898 49:0.935332 50:0.11463 51:0.690434 52:-0.069043 53:0.081227 54:-0.008123 55:0.441496 56:-0.294331 57:0.83205 58:-0.5547 59:0.83205 60:-0.5547 61:0.888748 62:-0.411324 63:0.983244 64:-0.172364 65:0.973592 66:-0.222824 67:0.967992 68:-0.249444 69:0.977676 70:-0.208422 71:0.978698 72:-0.205037 73:0.976749 74:-0.213848 75:0.985175 76:-0.167618 77:0.988072 78:-0.152794 79:0.983739 80:-0.179039 81:0.971359 82:-0.232229 83:0.962486 84:-0.267805 85:0.981211 86:-0.181634 87:0.97946 88:-0.189071 89:0.959793 90:-0.278414 91:0.945981 92:-0.32249 93:0.94185 94:-0.333395 95:0.962552 96:-0.266912 97:0.911626 98:-0.370854 99:0.819232 100:-0.573462 
0 0 0 0 0.0652287991055973 0 2:-1 3:-0.404082 4:-0.865306 5:-0.584284 6:-0.811119 7:-0.563392 8:-0.819072 9:-0.850209 10:-0.39079 11:-0.976746 12:-0.213168 13:-0.968762 14:-0.246968 15:-0.94599 16:-0.320098 17:-0.953488 18:-0.291019 19:-0.981589 20:-0.188805 21:-0.992684 22:-0.108379 23:-0.997054 24:-0.014087 25:-0.996184 26:0.057015 27:-0.989005 28:-0.105355 29:-0.986394 30:-0.023486 31:-0.98743 32:0.156098 33:-0.994267 34:0.101309 35:-0.993584 36:0.109255 37:-0.868731 38:0.246553 39:-0.202031 40:0.82478 41:0.4453 42:0.679046 43:0.950518 44:0.231806 45:0.959165 46:-0.166179 47:0.975447 48:-0.209431 49:0.989369 50:-0.145173 51:0.986974 52:-0.160648 53:0.992206 54:-0.11446 55:0.997875 56:-0.065087 57:0.998204 58:-0.059836 59:0.995093 60:-0.093378 61:0.993456 62:-0.085991 63:0.997345 64:0.039552 65:0.999126 66:0.028007 67:0.998266 68:0.027845 69:0.993066 70:0.111378 71:0.996691 72:0.053158 73:0.997539 74:-0.034634 75:0.99077 76:-0.129877 77:0.87753 78:-0.412825 79:0.469107 80:-0.678113 81:-0.370854 82:-0.876401 83:-0.708608 84:-0.049486 85:-0.624398 86:0.346888 87:-0.03568 88:0.019822 91:-0.296982 92:0.074246 93:-0.950344 94:0.237586 95:-0.87996 96:0.446398 97:-0.56036 98:0.373574 
0 0.08643272149962611 0 0 0.5847436597307099 0 1:-0.996546 2:0.083045 3:-0.904882 4:0.362078 5:-0.625708 6:0.385051 7:-0.086904 8:0.053479 9:-0.514769 10:0.128692 11:-0.973376 12:0.226027 13:-0.985907 14:0.162057 15:-0.986916 16:0.159793 17:-0.983088 18:0.183071 19:-0.985316 20:0.170488 21:-0.98557 22:0.052306 23:-0.983973 24:-0.164874 25:-0.40158 26:-0.073014 27:-0.22449 29:-0.857143 31:-1 33:-0.992628 34:0.041846 35:-0.954538 36:0.258051 37:-0.885588 38:0.441884 39:-0.790127 40:0.607116 41:-0.484067 42:0.827712 43:0.045175 44:0.58728 45:0.845425 46:-0.21297 47:0.960508 48:-0.275622 49:0.96249 50:-0.266203 51:0.93613 52:-0.347723 53:0.957843 54:-0.254225 55:0.993272 56:-0.114837 57:0.988534 58:-0.14898 59:0.987627 60:-0.156427 61:0.989877 62:-0.14189 63:0.985616 64:-0.167667 65:0.982311 66:-0.187185 67:0.980861 68:-0.194668 69:0.980581 70:-0.196116 71:0.979953 72:-0.19909 73:0.977173 74:-0.212258 75:0.981804 76:-0.18611 77:0.986051 78:-0.153903 79:0.925618 80:-0.347363 81:0.859664 82:-0.501545 83:0.787821 84:-0.613829 85:0.590209 86:-0.778828 87:0.151864 88:-0.711891 89:-0.76372 90:-0.146029 91:-0.530612 
0.01738068781271812 0.01550424734429266 0 0 0 0.1169269636628402 1:-0.707107 2:-0.707107 3:0.113579 4:-0.620163 5:0.835976 6:-0.548238 7:0.804829 8:-0.591453 9:0.569087 10:-0.50948 11:-0.348635 12:-0.010215 13:-0.953735 14:0.297989 15:-0.968329 16:0.245301 17:-0.982019 18:0.163805 19:-0.994654 20:0.048699 21:-0.994055 22:0.060036 23:-0.983751 24:0.164097 25:-0.970422 26:0.235454 27:-0.955748 28:0.292276 29:-0.957999 30:0.286024 31:-0.964281 32:0.264754 33:-0.961366 34:0.274985 35:-0.95764 36:0.287937 37:-0.952788 38:0.303261 39:-0.947034 40:0.320731 41:-0.936312 42:0.350001 43:-0.934429 44:0.283687 45:-0.956537 46:-0.04207 47:-0.568073 48:-0.193039 49:0.477309 50:-0.064346 51:0.983108 52:-0.093155 53:0.949323 54:-0.279466 55:0.935355 56:-0.353689 57:0.933772 58:-0.357857 59:0.918255 60:-0.046374 61:0.897604 62:0.381402 63:0.492848 64:0.246424 65:0.018254 66:0.009127 67:0.507672 68:0.050767 69:0.99524 70:0.095442 71:0.997873 72:0.042645 73:0.999741 74:0.00727 75:0.998392 76:0.045075 77:0.997556 78:0.069799 79:0.997871 80:0.065093 81:0.997376 82:0.026037 83:0.995776 84:-0.059859 85:0.710741 86:-0.071074 87:0.182762 88:-0.018276 89:0.344817 90:-0.038313 91:0.872184 92:-0.096909 93:0.993228 94:-0.014731 95:0.992376 96:0.10968 97:0.976107 98:-0.069063 99:0.957826 100:-0.287348 
0 0 0 0 0.5109180611415036 0 1:0.707107 2:-0.707107 3:-0.303222 4:-0.288615 5:-0.980609 6:-0.082141 7:-0.918127 8:-0.346819 9:-0.914358 10:-0.399096 11:-0.946469 12:-0.321574 13:-0.960508 14:-0.275622 15:-0.972972 16:-0.228091 17:-0.984695 18:-0.168248 19:-0.988788 20:-0.148924 21:-0.986684 22:-0.162523 23:-0.978102 24:-0.204265 25:-0.973189 26:-0.217787 27:-0.99086 28:-0.074246 29:-0.994954 30:0.053461 31:-0.984501 32:0.1642 33:-0.983486 34:0.180857 35:-0.981336 36:0.185884 37:-0.948012 38:0.302834 39:-0.944315 40:0.309052 41:-0.982592 42:0.1584 43:-0.138943 44:0.066766 45:1 47:1 49:0.999648 50:-0.011984 51:0.998627 52:-0.046738 53:0.998943 54:-0.035952 55:0.999965 56:-0.001198 57:0.428571 59:0.163081 60:0.007766 61:0.754247 62:0.035916 63:0.999261 64:0.031063 65:0.999931 66:0.002912 67:1 69:1 71:1 73:0.910339 74:-0.216461 75:0.736994 76:-0.634953 77:0.360769 78:-0.360769 79:-0.057723 80:-0.057723 81:-0.476215 82:-0.476215 83:-0.784813 84:-0.519507 85:-0.958158 86:-0.101015 87:-0.991281 88:-0.088052 89:-0.977064 90:-0.206365 91:-0.926075 92:-0.354974 93:-0.852376 94:-0.505557 95:-0.741513 96:-0.659371 97:-0.418492 98:-0.418492 
0.1199385392446821 0.2345624467742316 0.1713442716378041 0.2997218150500766 0.2633462771203747 0.2723928131262748 13:-0.365072 14:0.182536 15:-0.855894 16:0.271773 17:-0.657723 18:-0.630491 19:-0.242229 20:-0.302786 21:-0.329135 22:-0.109712 23:-0.947034 24:-0.320731 25:-0.932188 26:-0.361259 27:-0.946686 28:-0.01537 29:-0.971791 30:0.175873 31:-0.997511 32:-0.069793 33:-0.999378 34:-0.017448 35:-0.995077 36:0.069268 37:-0.992206 38:0.109674 39:-0.99959 40:0.005772 41:-0.95582 42:0.243637 43:-0.936329 44:0.05016 45:-0.929488 46:-0.366812 47:-0.898703 48:-0.437408 49:-0.928752 50:-0.364345 51:-0.259114 52:-0.336492 53:0.929278 54:-0.297665 55:0.935047 56:0.233162 57:0.92651 58:0.375578 59:0.937952 60:0.333367 61:0.980155 62:0.198011 63:0.972486 64:0.232115 65:0.981436 66:0.182076 67:0.989413 68:0.141687 69:0.980819 70:0.194645 71:0.994452 72:0.056033 73:0.997772 74:0.044675 75:0.995949 76:0.081227 77:0.999595 78:0.008123 79:0.808723 80:-0.461784 81:0.065066 82:-0.555541 83:-0.954967 84:-0.277506 85:-0.992669 86:-0.045175 87:-0.408163 89:-0.326531 91:-0.993536 92:-0.02738 93:-0.915973 94:-0.355946 95:-0.894427 96:0.02738 97:-0.804296 98:0.549313 99:-0.5547 100:0.83205 
0.05487901266673974 0.02686054933561677 0 0.2320711319110961 0 0.01071704218385878 1:-0.707107 2:-0.707107 3:-0.857413 4:-0.441638 5:-0.971634 6:-0.235904 7:-0.977598 8:-0.209379 9:-0.938143 10:-0.298569 11:-0.853269 12:-0.503474 13:-0.882036 14:-0.452498 15:-0.948683 16:-0.316228 17:-0.972994 18:-0.211048 19:-0.99206 20:-0.102327 21:-0.99539 22:0.017022 23:-0.99569 24:0.019345 25:-0.99296 26:-0.095359 27:-0.992278 28:-0.124035 29:-0.992278 30:-0.124035 31:-0.967367 32:0.127544 33:-0.93368 34:0.347749 35:-0.873668 36:0.473833 37:-0.555644 38:0.665309 39:0.02039 40:0.922177 41:0.21168 42:0.975735 43:0.274721 44:0.961524 45:0.521799 46:0.008021 47:0.707107 48:-0.707107 49:0.707107 50:-0.707107 51:0.78226 52:-0.43578 53:0.932566 54:0.106872 55:0.957971 56:-0.005552 57:0.941742 58:-0.336336 59:0.954897 60:-0.294497 61:0.969481 62:-0.235032 63:0.98835 64:-0.12269 65:0.997785 66:-0.066519 67:0.997785 68:-0.066519 69:0.991394 70:-0.116992 71:0.982872 72:-0.184289 73:0.972525 74:-0.229334 75:0.912655 76:-0.111243 77:0.704218 78:0.496252 79:0.484605 80:0.851594 81:0.253814 82:0.954783 83:0.540638 84:0.560332 85:1 87:0.428571 88:0.571429 89:-0.089242 90:0.968696 91:-0.446211 92:0.843478 93:-0.446211 94:0.557763 95:-0.089242 96:0.111553 97:-0.303046 98:0.303046 99:-0.707107 100:0.707107 
0 0 0 0 0 0.7298271787184881 1:-1 3:-0.387755 5:-0.21297 6:0.07099 7:-0.793796 8:0.264599 9:-0.971723 10:0.174248 11:-0.996858 12:0.019361 13:-0.96544 14:0.21297 15:-0.959458 16:0.178906 17:-0.982546 18:-0.115355 19:-0.983428 20:-0.180581 21:-0.86051 22:-0.172102 23:-0.260154 24:-0.052031 25:-0.34426 26:0.043033 27:-0.951777 28:0.118972 29:-0.996691 30:0.053158 31:-0.997501 32:-0.030196 33:-0.989171 34:-0.130848 35:-0.979761 36:0.001697 37:-0.961664 38:0.254567 39:-0.707312 40:0.615494 41:-0.418855 42:0.628283 43:-0.079243 44:0.118864 45:-0.390554 46:-0.260369 47:-0.84576 48:-0.509419 49:-0.948587 50:-0.169806 51:-0.997315 52:-0.040458 53:-0.991944 54:-0.121375 55:-0.894396 56:-0.374127 57:-0.559441 58:-0.453987 59:0.508966 60:0.121092 61:0.592372 62:0.222139 63:0.019109 64:0.007166 71:0.406579 72:-0.135526 73:0.9403 74:-0.276016 75:0.814552 76:0.327163 77:0.810618 78:0.511832 79:0.965982 80:0.149219 81:0.998497 82:0.039131 83:0.897959 85:0.285714 97:0.387755 99:1 
0.005546975378528137 0 0 0 0.04988090251841362 0 1:0.894427 2:0.447214 3:0.602369 4:0.739271 5:0.447214 6:0.894427 7:0.447214 8:0.894427 9:0.173409 10:0.346819 11:-0.1876 12:-0.1876 13:-0.649384 14:-0.649384 15:-0.874474 16:-0.303046 17:-1 19:-1 21:-0.924384 22:-0.272998 23:-0.841096 24:-0.537581 25:-0.782796 26:-0.619664 27:-0.881746 28:-0.326625 29:-1 31:-1 33:-0.982725 34:-0.123344 35:-0.964826 36:-0.257957 37:-0.985959 38:-0.150666 39:-0.994355 40:-0.105971 41:-0.992759 42:-0.075819 43:-0.968458 44:0.176819 45:-0.964571 46:0.26148 47:-0.976673 48:0.212503 49:-0.992224 50:0.070834 51:-0.976645 52:0.12127 53:-0.929936 54:0.363811 55:-0.969857 56:0.206294 57:-0.911947 58:0.28091 59:-0.724665 60:0.670576 61:0.203823 62:-0.039677 63:0.857588 64:-0.504845 65:0.925688 66:-0.371897 67:0.967158 68:-0.225993 69:0.993854 70:-0.098722 71:0.998897 72:-0.017719 73:0.999006 74:-0.031826 75:0.998371 76:-0.052194 77:0.999642 78:-0.011457 79:0.998617 80:-0.036 81:0.993101 82:-0.035087 83:0.972013 84:0.186833 85:0.974034 86:0.22081 87:0.987505 88:0.150979 89:0.99639 90:0.043616 91:0.944742 92:0.199498 93:0.840747 94:0.530003 95:0.572809 96:0.778122 97:0.387369 98:0.917706 99:0.274721 100:0.961524 
0.3074206941490182 0.3286009915805341 0.6941953437244225 1.199236950062462 0.184283454807788 0.5525429997147964 1:-0.707107 2:-0.707107 3:-0.707107 4:-0.707107 5:-0.802678 6:-0.574508 7:-0.908822 8:-0.412462 9:-0.929322 10:-0.309774 11:-0.21297 12:-0.07099 13:-0.492661 14:-0.197064 15:-0.886303 16:-0.443763 17:-0.789672 18:-0.602587 19:-0.95253 20:-0.193586 21:-0.987749 22:-0.14535 23:-0.984429 24:-0.171848 25:-0.932345 26:-0.109688 27:-0.182415 28:-0.021461 29:-0.554367 30:-0.138592 31:-0.967979 32:-0.075946 33:-0.965676 34:0.234251 35:-0.985634 36:-0.074635 37:-0.591216 38:-0.619189 39:-0.361672 40:-0.92986 41:-0.40158 42:-0.803159 43:-0.063888 44:-0.127775 45:0.148491 46:0.593965 47:0.497399 48:0.48478 49:0.939414 50:-0.274489 51:0.958439 52:0.198087 53:0.943697 54:0.328027 55:0.95579 56:0.27103 57:0.991607 58:0.129059 59:0.993613 60:0.112649 61:0.993405 62:0.114617 63:0.99345 64:0.114225 65:0.994882 66:0.092402 67:0.999501 68:0.009015 69:1 71:0.978007 72:0.135526 73:0.590762 74:0.258145 75:-0.880693 76:0.019361 77:-0.993026 78:-0.098129 79:-0.862959 80:0.23955 81:-0.745335 82:0.654067 83:-0.886781 84:0.457821 85:-0.894427 86:0.447214 87:-0.894427 88:0.447214 89:-0.852376 90:0.505557 91:-0.71093 92:0.701803 93:-0.84473 94:0.516165 95:-0.946136 96:0.22817 97:-0.928271 98:0.173169 99:-0.707107 100:0.707107 
0.259810521295577 0.1958853290136931 0.07418352892985802 1.490013212458014 0.03175320276305293 0.29488061472131 1:1 3:1 5:1 7:1 9:1 11:1 13:1 15:1 17:1 19:1 21:0.877551 22:0.122449 23:0.265306 24:0.734694 25:-0.329135 26:0.762773 27:-0.909962 28:0.344137 29:-0.978007 30:0.135526 31:-1 33:-1 35:-0.996848 36:0.050626 37:-0.992435 38:0.121503 39:-0.997163 40:0.045564 41:-0.995244 42:0.048028 43:-0.983355 44:0.1681 45:-0.983309 46:0.181228 47:-0.983316 48:0.176793 49:-0.960227 50:0.26975 51:-0.952614 52:0.303522 53:-0.960476 54:0.278109 55:-0.966097 56:0.000258 57:-0.950415 58:-0.287131 59:-0.865869 60:-0.478252 61:-0.615494 62:-0.707312 63:-0.254567 64:-0.961664 65:0.430361 66:-0.660654 67:0.9055 68:-0.291409 69:0.938718 70:0.176004 71:0.95788 72:0.284645 73:0.971241 74:0.235767 75:0.987718 76:0.134233 77:0.997054 78:0.076697 79:0.997054 80:0.076697 81:0.996805 82:0.079806 83:0.996898 84:0.074571 85:0.999013 86:0.023727 87:1 89:1 91:0.83861 92:-0.38963 93:0.682224 94:-0.455816 95:0.588914 96:0.486525 97:0.686431 98:0.682828 99:0.894427 100:0.447214 
0 0.1625586351922695 0 0 1.025699475081132 0.04670177549961362 11:-0.265306 13:-0.918367 15:-0.970676 16:-0.180702 17:-0.911011 18:-0.385476 19:-0.801418 20:-0.586924 21:-0.808026 22:-0.587555 23:-0.848047 24:-0.525169 25:-0.904925 26:-0.420169 27:-0.954965 28:-0.261731 29:-0.987064 30:-0.148328 31:-0.963228 32:-0.259382 33:-0.949477 34:-0.313055 35:-0.946298 36:-0.318792 37:-0.975459 38:-0.206506 39:-0.987845 40:-0.15502 41:-0.990565 42:-0.132763 43:-0.997128 44:-0.040406 45:-1 47:-0.959793 48:0.00495 49:0.326831 50:0.16334 51:0.970143 52:0.242536 53:0.970143 54:0.242536 55:0.982673 56:0.178565 57:0.991074 58:0.132567 59:0.993643 60:0.112329 61:0.992312 62:0.123293 63:0.992834 64:0.116087 65:0.997116 66:0.073218 67:0.993468 68:0.107792 69:0.989949 70:0.141421 71:0.989949 72:0.141421 73:0.985169 74:0.169327 75:0.983751 76:0.164097 77:0.996433 78:0.036021 79:0.198705 80:-0.331907 81:-0.730044 82:-0.675283 83:-0.852376 84:-0.505557 85:-0.878598 86:-0.476049 87:-0.787494 88:-0.472496 89:-0.227498 90:-0.136499 91:-0.173409 92:-0.346819 93:-0.447214 94:-0.894427 95:-0.447214 96:-0.894427 97:-0.447214 98:-0.894427 99:-0.447214 100:-0.894427 
0.1942007393973841 0.1981144430378045 0.4565431894637539 0.3073883184720364 0.7512714216310084 0.4469146237898695 1:-0.980581 2:-0.196116 3:-0.973764 4:-0.226431 5:-0.927869 6:-0.338096 7:-0.837687 8:-0.541959 9:-0.903458 10:-0.408697 11:-0.943322 12:-0.330863 13:-0.930126 14:-0.366888 15:-0.945248 16:-0.323366 17:-0.961948 18:-0.27154 19:-0.973939 20:-0.225553 21:-0.970126 22:-0.241438 23:-0.968273 24:-0.247646 25:-0.980751 26:-0.192638 27:-0.986848 28:-0.160536 29:-0.991385 30:-0.121218 31:-0.997949 32:-0.028861 33:-0.97696 34:0.14198 35:-0.897513 36:0.375228 37:-0.570023 38:0.752827 39:0.143486 40:0.529355 41:0.997418 42:0.017593 43:0.969876 44:0.205248 45:0.973319 46:0.181792 47:0.999604 48:0.004002 49:0.986922 50:0.132078 51:0.981329 52:0.192254 53:0.982825 54:0.18453 55:0.972347 56:0.230709 57:0.963832 58:0.266144 59:0.958341 60:0.28553 61:0.976838 62:0.200983 63:0.912249 64:0.287997 65:0.705048 66:0.678867 67:0.453393 68:0.862037 69:0.127388 70:0.947831 71:-0.34408 72:0.904012 73:-0.725308 74:0.50137 75:-0.830273 76:0.103784 77:-0.182255 78:0.022782 82:-0.122449 84:-0.77551 85:-0.303046 86:-0.874474 87:-0.694665 88:-0.717306 89:-0.595135 90:-0.798902 91:0.036565 92:-0.415374 93:0.930545 94:0.232636 95:0.296982 96:0.074246 
0.2869003823971782 0.2625922973749907 0 0 0.2938516587480381 0.3963259600168313 1:-0.780869 2:0.624695 3:-0.883612 4:0.435838 5:-0.953501 6:0.299685 7:-0.966639 8:0.254567 9:-0.983548 10:0.133642 11:-0.999167 12:-0.010065 13:-0.990837 14:-0.110718 15:-0.98944 16:-0.095515 17:-0.995967 18:0.052095 19:-0.996795 20:-0.004805 21:-0.995303 22:-0.093007 23:-0.989087 24:-0.142815 25:-0.990092 26:-0.133972 27:-0.996619 28:-0.080276 29:-0.997054 30:0.010957 31:-0.994029 32:0.098631 33:-0.983943 34:0.171745 35:-0.945416 36:0.298605 37:-0.896582 38:0.438087 39:-0.961218 40:0.164283 41:-0.51496 42:0.048028 43:0.697641 44:0.1681 45:0.989696 46:0.104062 47:0.999859 48:-0.004794 49:0.998803 50:-0.040746 51:0.997121 52:-0.072792 53:0.994813 54:-0.100933 55:0.990201 56:-0.13637 57:0.988091 58:-0.149302 59:0.995365 60:-0.084602 61:0.996661 62:0.003416 63:0.993973 64:0.106979 65:0.994566 66:0.103964 67:0.989957 68:0.128694 69:0.974715 70:0.216264 71:0.554367 72:0.567163 73:-0.040816 74:0.959184 75:-0.653061 76:0.346939 77:-0.971991 78:0.118649 79:-0.907354 80:0.392453 81:-0.894427 82:0.009127 83:-0.894427 84:-0.447214 85:-0.894427 86:-0.447214 87:-0.833261 88:-0.532077 89:-0.718575 90:-0.691195 91:-0.810324 92:-0.5639 93:-0.911664 94:-0.374199 95:-0.9763 96:-0.100395 97:-0.959064 98:0.173409 99:-0.894427 100:0.447214 
0 0 0 0 0 0.04748583014021469 1:-0.707107 2:-0.707107 3:-0.821793 4:-0.547989 5:-0.906607 6:-0.417809 7:-0.939825 8:-0.337613 9:-0.924323 10:-0.375038 11:-0.896512 12:-0.442571 13:-0.917358 14:-0.396149 15:-0.940381 16:-0.334575 17:-0.965891 18:-0.255684 19:-0.967398 20:-0.253037 21:-0.965422 22:-0.260597 23:-0.968716 24:-0.247996 25:-0.962697 26:-0.268102 27:-0.949559 28:-0.31322 29:-0.976555 30:-0.176239 31:-0.994359 32:-0.022139 33:-0.984025 34:0.141552 35:-0.987097 36:0.149965 37:-0.995569 38:0.087804 39:-0.966265 40:0.230569 41:-0.852198 42:0.442552 43:-0.610983 44:0.758361 45:-0.294331 46:0.441496 47:0.081002 48:0.010125 49:0.688519 50:0.086065 51:0.993864 52:0.064255 53:0.997036 54:-0.055306 55:0.977246 56:-0.183163 57:0.964527 58:-0.255401 59:0.986647 60:-0.140692 61:0.995132 62:-0.098437 63:0.994526 64:-0.104483 65:0.405921 66:-0.042729 67:0.204082 69:0.816327 71:0.996691 72:-0.053158 73:0.989994 74:-0.104641 75:0.95574 76:0.186273 77:0.551416 78:0.485466 79:-0.336844 80:0.795488 81:-0.608836 82:0.783834 83:-0.634953 84:0.634953 85:-0.202031 86:0.202031 87:-0.230892 88:0.230892 89:-0.663815 90:0.663815 91:-0.317477 92:0.317477 98:-0.387755 100:-1 
0 0 0 0.3649158424496573 0 0 1:-0.707107 2:0.707107 3:-0.855011 4:0.080575 5:-0.957149 6:-0.208332 7:-0.980237 8:0.085929 9:-0.92852 10:-0.140411 11:-0.865603 12:-0.491654 13:-0.946698 14:-0.263242 15:-0.991834 16:-0.124743 17:-0.995873 18:-0.089002 19:-0.98033 20:-0.174919 21:-0.968576 22:-0.241985 23:-0.987634 24:-0.136323 25:-0.966221 26:-0.20269 27:-0.913857 28:-0.400608 29:-0.961586 30:-0.177344 31:-0.9758 32:-0.091128 33:-0.895132 34:-0.394886 35:-0.878931 36:-0.476169 37:-0.896582 38:-0.438087 39:-0.961218 40:-0.164283 41:-0.510204 43:0.714286 45:0.983461 46:0.123504 47:0.96701 48:0.251764 49:0.983855 50:0.166611 51:0.981105 52:0.176091 53:0.958759 54:0.280204 55:0.97391 56:0.21308 57:0.991385 58:0.121218 59:0.997539 60:0.034634 61:0.997163 62:0.045564 63:0.992435 64:0.121503 65:0.996848 66:0.050626 67:0.965725 68:0.113204 69:0.862898 70:0.452816 71:0.778503 72:0.620017 73:0.659992 74:0.714753 75:-0.046735 76:0.829438 77:-0.574896 78:0.755662 79:-0.869547 80:0.435436 81:-0.911799 82:0.408528 83:-0.803159 84:0.40158 85:-0.255551 86:0.127775 87:-0.326531 89:-0.938776 91:-0.941827 92:-0.246424 93:-0.903285 94:-0.32257 95:-0.936503 96:0.144843 97:-0.724835 98:0.55363 99:-0.371391 100:0.928477 
0.8152407671374315 1.123730572202345 0.7267516073785585 1.076194457235979 1.6227980570948 1.073325671978782 1:0.196116 2:-0.980581 3:-0.694123 4:-0.545179 5:-0.482006 6:-0.778046 7:-0.582622 8:-0.534568 9:-0.981024 10:-0.098532 11:-0.932371 12:-0.358782 13:-0.971319 14:-0.232692 15:-0.98489 16:-0.170592 17:-0.988372 18:-0.152057 19:-0.991638 20:-0.122381 21:-0.993272 22:-0.095256 23:-0.970707 24:-0.238943 25:-0.985907 26:-0.162057 27:-0.987773 28:0.045816 29:-0.920247 30:0.331671 31:-0.409239 32:0.528377 33:0.897749 34:0.439194 35:0.94204 36:0.332267 37:0.959841 38:0.279376 39:0.963111 40:-0.01129 41:0.974088 42:-0.185016 43:0.998564 44:-0.020203 45:0.99036 46:-0.135649 47:0.995459 48:-0.091227 49:0.996753 50:0.017845 51:0.997956 52:0.049149 53:0.996946 54:0.036906 55:0.985731 56:0.167588 57:0.972464 58:0.231373 59:0.412024 60:0.745896 61:-0.082733 62:0.969737 63:-0.376922 64:0.920768 65:-0.451496 66:0.752494 67:-0.0315 68:0.0525 71:0.571429 73:1 75:0.871712 76:-0.189485 77:0.371391 78:-0.928477 79:0.371391 80:-0.928477 81:0.256926 82:-0.962504 83:0.104062 84:-0.989696 85:-0.277184 86:-0.783582 87:-0.871148 88:-0.319828 89:-0.079195 90:-0.938166 91:0.519507 92:-0.784813 93:-0.205267 94:-0.143229 95:-0.782443 96:0.519009 97:-0.515215 98:0.855709 99:-0.6 100:0.8 
0.1370822669021573 0.1682379597968114 0.02324468122031644 0 0.4147248126764129 0.1773901616037597 1:-1 3:-0.8147 4:-0.447353 5:-0.784813 6:-0.519507 7:-0.970113 8:-0.072154 9:-1 11:-1 13:-1 15:-1 17:-0.999167 18:-0.010065 19:-0.990559 20:-0.114073 21:-0.986394 22:-0.164399 23:-0.986394 24:-0.164399 25:-0.969487 26:-0.237165 27:-0.965038 28:-0.254589 29:-0.98536 30:-0.162268 31:-0.943163 32:-0.291197 33:-0.858375 34:-0.490412 35:-0.672105 36:-0.713603 37:0.020408 38:-0.489796 39:0.997845 40:0.009127 41:0.931054 42:0.292058 43:0.894427 44:0.447214 45:0.894427 46:0.447214 47:0.79121 48:0.59042 49:0.741513 50:0.659371 51:0.860021 52:0.494949 53:0.888161 54:0.459285 55:0.890229 56:0.435398 57:0.965849 58:0.135457 59:0.998978 60:0.026609 61:0.997115 62:0.075131 63:0.990528 64:0.130392 65:0.987835 66:0.093762 67:0.991557 68:-0.088716 69:0.976587 70:-0.200916 71:0.913406 72:-0.347028 73:0.70031 74:-0.667244 75:0.572223 76:-0.107762 77:0.467884 78:0.872828 79:0.029926 80:0.943899 81:-0.433063 82:0.754649 83:-0.922753 84:0.287722 85:-0.415775 86:0.103944 93:-0.072154 94:-0.072154 95:-0.519507 96:-0.519507 97:-0.707107 98:-0.707107 99:-0.707107 100:-0.707107 
-0.09016966456488841 0.1609316264591141 0.2078416342142812 0.1149291168942694 0.3621119094542964 0.2660425673265063 1:-1 3:-0.163265 7:-0.161341 8:0.484022 9:-0.206516 10:0.619548 12:0.183673 13:0.02039 14:0.978742 15:0.8564 16:0.107174 17:0.955555 18:-0.256381 19:0.932163 20:-0.361877 21:0.950479 22:-0.290819 23:0.582582 24:-0.121025 25:-0.91916 26:-0.008005 27:0.738061 28:-0.172102 29:0.987273 30:0.044982 31:0.995488 32:0.063495 33:0.997628 34:0.04282 35:0.995257 36:0.085641 37:0.999937 38:0.00278 39:0.999074 40:0.040774 41:0.993282 42:0.109147 43:0.994267 44:0.104096 45:0.985769 46:0.148143 47:0.968032 48:0.250418 49:0.960476 50:0.278109 51:0.949732 52:0.312839 53:-0.518153 54:0.160831 55:-0.967132 56:0.232229 57:-0.969937 58:0.155535 59:-0.998216 60:-0.059692 61:-0.997463 62:-0.06867 63:-0.992631 64:-0.12026 65:-0.996756 66:-0.076219 67:-0.997889 68:-0.064913 69:-0.978925 70:-0.168692 71:-0.953752 72:-0.119711 73:-0.952589 74:0.253492 75:-0.979279 76:-0.175204 77:-0.996037 78:-0.040024 79:-0.952347 80:0.240883 81:-0.922081 82:0.386931 83:-0.904273 84:0.423962 85:-0.606114 86:0.393747 87:0.942802 88:-0.182072 89:0.180107 90:-0.036021 93:0.489796 95:0.673469 
-0.1360277561085691 0.02001827399661835 0.3072001287589453 1.072940400471949 0 0.06974254065813187 1:0.447214 2:0.894427 3:-0.063888 4:-0.127775 5:-0.383326 6:-0.909509 7:-0.127775 8:-0.969836 9:-0.255551 10:-0.842061 11:-0.766652 12:-0.526183 13:-0.939673 14:-0.255551 15:-1 17:0.142857 19:0.997226 20:-0.028017 21:0.986129 22:-0.140083 23:0.984711 24:-0.168513 25:0.992972 26:-0.113305 27:0.995902 28:-0.023989 29:0.997054 30:0.076697 31:0.998738 32:0.03287 33:0.999753 34:-0.008389 35:0.998767 36:-0.041944 37:0.997349 38:-0.070374 39:0.9955 40:-0.093678 41:0.995404 42:-0.018058 43:0.995893 44:0.090536 45:0.902269 46:0.355773 47:0.840961 48:0.539345 49:0.876605 50:0.477924 51:0.840907 52:0.521469 53:0.733867 54:0.669979 55:0.707107 56:0.707107 57:0.707107 58:0.707107 59:-0.239059 60:0.483747 61:-0.951749 62:0.3057 63:-0.964011 64:0.263591 65:-0.96768 66:0.094748 67:-0.962755 68:-0.200827 69:-0.978014 70:-0.156984 71:-1 73:-1 75:-1 77:-1 79:-0.999158 80:-0.021913 81:-0.997475 82:-0.06574 83:-0.998317 84:-0.043827 85:-1 87:-0.995587 88:0.070877 89:-0.993381 90:0.106315 91:-0.997794 92:0.035438 93:-1 95:-1 97:-0.188103 98:0.191663 99:0.894427 100:0.447214 
-0.9894338123902813 0.5931149956821243 0.644394096436484 0.8117273777819413 1.468825691228592 0.7284292853715025 1:-0.316228 2:0.948683 3:0.70452 4:0.21297 5:0.44898 6:-0.55102 7:0.230892 8:-0.904361 9:0.735968 10:-0.649384 11:0.955316 12:-0.210689 13:0.995386 14:-0.010715 15:0.999014 16:0.033555 17:1 19:1 21:0.980663 22:0.169792 23:0.985346 24:0.158344 25:0.984778 26:0.153142 27:0.96308 28:0.236285 29:0.977858 30:-0.128854 31:0.992866 32:-0.072043 33:0.970807 34:0.151588 35:0.75794 36:0.119503 37:0.037897 38:-0.944025 39:-0.734694 40:-0.265306 41:-1 43:-0.996504 44:0.044561 45:-0.988418 46:0.14981 47:-0.996714 48:0.071877 49:-0.998639 50:0.052083 51:-0.999236 52:0.030574 53:-0.996112 54:0.035417 55:-0.977645 56:0.203649 57:-0.993196 58:0.06198 59:-0.990488 60:-0.096057 61:-0.970277 62:-0.233317 63:-0.938983 64:-0.342431 65:-0.886571 66:-0.458219 67:-0.897626 68:-0.438589 69:-0.578126 70:-0.256945 71:-0.079243 72:0.118864 73:-0.509419 74:0.764128 75:-0.169806 76:0.948587 77:-0.148433 78:0.975913 79:-0.161341 80:0.948683 81:0.330182 82:0.929322 83:0.860455 84:0.193609 85:0.970676 86:0.180702 87:0.948683 88:0.096804 89:0.948683 90:-0.316228 91:0.948683 92:-0.316228 93:0.309774 94:-0.103258 95:0.317477 96:0.317477 97:0.735155 98:0.672893 99:0.83205 100:0.5547 
-0.3397625418489109 0.4991460187125032 0.4489821310538709 0.5034067610481972 0.629491145771755 0.8156369536480236 1:-0.894427 2:0.447214 3:-0.40158 4:0.75181 5:0.096804 6:0.930227 7:0.619548 8:0.553455 9:0.610767 10:0.107384 11:-0.301607 12:-0.456494 13:-0.184523 14:-0.490646 15:0.756128 16:-0.101015 17:0.987813 18:0.098994 19:0.971361 20:0.232636 21:0.985376 22:0.118793 23:0.999385 24:0.008658 25:0.993847 26:0.086584 27:0.99159 28:0.118332 29:0.997128 30:0.040406 31:0.981024 32:0.098532 33:0.941614 34:0.303176 35:0.9359 36:0.351127 37:0.947034 38:0.320731 39:0.972771 40:0.167794 41:0.994023 42:-0.014431 43:0.832632 44:-0.404061 45:0.581801 46:-0.736688 47:0.017922 48:-0.869801 49:-0.120713 50:-0.9225 51:0.359186 52:-0.858233 53:0.5547 54:-0.83205 55:0.5547 56:-0.83205 57:0.700297 58:-0.283794 59:0.887494 60:0.421106 61:0.65713 62:0.684511 63:0.330184 64:0.834833 65:-0.459763 66:0.432573 67:-0.986394 68:0.164399 69:-0.986394 70:0.164399 71:-0.990281 72:0.117428 73:-0.997779 74:0.026841 75:-0.99247 76:0.076045 77:-0.98177 78:0.184109 79:-0.990092 80:0.100059 81:-0.9967 82:-0.016078 83:-0.952147 84:-0.233136 85:-0.923365 86:-0.382821 87:-0.939641 88:-0.340011 89:-0.948683 90:-0.161341 91:-0.948683 92:0.187155 93:-0.774704 94:0.516828 95:-0.498384 96:0.835427 97:0.202556 98:0.492848 99:1 
-0.6177528931078047 0.6905126331107245 0.6356293684578128 1.060980032944467 0.7208046242015577 0.7405434827768961 1:0.707107 2:-0.707107 3:0.101015 4:0.756128 6:0.285714 8:0.571429 10:1 11:-0.255551 12:0.842061 13:-0.894427 14:0.447214 15:-0.894427 16:0.447214 17:-0.940932 18:-0.207165 19:-0.776129 20:-0.595427 21:-0.814147 22:-0.558596 23:-0.894427 24:-0.447214 25:-0.383326 26:-0.447214 27:0.894427 28:-0.447214 29:0.894427 30:-0.447214 31:0.976303 32:-0.185106 33:0.921719 34:0.279032 35:0.127775 36:0.702764 37:0.173021 38:0.511101 39:0.937391 40:0.178484 41:0.802651 42:0.586736 43:0.933346 44:0.358979 45:0.978816 46:0.192196 47:0.994531 48:0.094485 49:0.989834 50:0.130728 51:0.963495 52:0.252702 53:0.951649 54:0.291209 55:0.705671 56:0.121218 57:-1 59:-0.583854 60:0.734994 61:-0.604273 62:0.793727 63:-0.274365 64:0.329238 65:-0.428571 67:-0.714286 68:-0.285714 69:-0.142857 70:-0.857143 71:-1 73:-0.142857 74:-0.857143 75:-0.704567 76:-0.403142 77:-0.994169 78:-0.070457 79:-1 81:-1 83:-0.999291 84:-0.014215 85:-0.995037 86:-0.099504 87:-0.999291 88:-0.014215 89:-0.963345 90:-0.225877 91:-0.948683 92:-0.316228 93:-0.898698 94:-0.41843 95:-0.880036 96:-0.396214 97:-0.857143 98:-0.142857 100:-1 
-0.2632061283735329 0.273761523139448 0.3293189211221303 0.218997866257326 0.2992467175311936 0.3858996827579024 1:-0.83205 2:-0.5547 3:-0.927869 4:-0.001516 5:-0.378877 6:0.471123 7:0.591051 8:0.764128 9:0.900035 10:0.186787 11:0.995282 12:0.066381 13:0.99078 14:0.134578 15:0.99431 16:0.105492 17:0.997772 18:0.044675 19:0.999577 20:0.014381 21:0.99838 22:0.055127 23:0.999366 24:0.021571 25:1 27:0.999604 28:0.004002 29:0.986129 30:0.140083 31:0.930341 32:0.326067 33:0.769994 34:0.564037 35:0.174999 36:0.900918 37:0.438087 38:0.729247 39:0.546471 40:0.365072 41:-0.768029 42:0.054761 43:-0.982939 44:-0.138592 45:-0.978064 46:-0.178189 47:-0.998781 48:-0.009899 49:-0.997744 50:-0.054234 51:-0.996862 52:-0.078952 53:-0.997492 54:-0.065942 55:-0.998058 56:0.02424 57:-0.997925 58:0.06409 59:-0.996824 60:0.077711 61:-0.993229 62:0.114339 63:-0.996218 64:0.060752 65:-1 67:-1 69:-0.408163 70:0.591837 71:-0.242285 72:0.865714 73:-0.830692 74:0.539591 75:-0.946248 76:0.098689 77:-0.628784 78:-0.437212 79:-0.019361 80:-0.880693 81:-0.238784 82:0.471455 83:-0.423297 84:0.896317 85:-0.475457 86:0.713186 87:-0.090563 88:0.135845 91:-0.07099 92:0.21297 93:-0.290413 94:0.87124 95:-0.396423 96:0.915465 97:-0.526773 98:0.837084 99:-0.707107 100:0.707107 
-0 0 0 0 0 0.1104535173547845 1:-0.316228 2:0.948683 3:-0.148433 4:0.4453 5:0.061225 7:0.591837 9:0.993716 10:0.038722 11:0.966487 12:0.206516 13:0.958109 14:0.258145 15:0.985338 16:0.090351 17:1 19:1 21:1 23:1 25:0.999066 26:0.026172 27:0.997718 28:0.063977 29:0.998548 30:0.040713 31:0.999896 32:0.002908 33:0.988337 34:-0.106252 35:0.976494 36:-0.209806 37:0.984475 38:-0.024572 39:0.990995 40:0.133788 41:0.989479 42:0.144343 43:0.990033 44:0.130335 45:0.996203 46:0.049651 47:0.997949 48:-0.028861 49:0.992616 50:-0.103901 51:0.992616 52:-0.103901 53:0.997949 54:-0.028861 55:0.904361 56:0.230892 57:0.748949 58:0.606092 59:0.047539 60:0.390102 61:-0.855027 62:-0.043694 63:-0.980809 64:-0.178984 65:-0.965358 66:-0.260001 67:-0.979247 68:-0.069261 69:-0.993374 70:0.114217 71:-0.996275 72:0.080108 73:-0.99751 74:0.06311 75:-0.99175 76:0.117978 77:-0.98812 78:0.10741 79:-0.98928 80:-0.050386 81:-0.989151 82:-0.072768 83:-0.987265 84:0.089504 85:-0.97209 86:0.217749 87:-0.945525 88:0.316827 89:-0.958419 90:0.229305 91:-0.992204 92:0.042995 93:-1 95:-1 97:-0.198705 98:-0.331907 99:0.707107 100:-0.707107 
-0.207537556076995 0.3511836737258813 0.1124295531922113 1.02587588557972 0 0.2150373457276767 1:-0.707107 2:-0.707107 3:-0.274184 4:-0.886429 5:0.22449 6:-0.77551 7:0.836735 8:-0.163265 9:0.97696 10:-0.14198 11:0.950636 12:-0.28486 13:0.970165 14:0.02882 15:0.986129 16:0.140083 17:0.998018 18:0.020012 19:0.993058 20:-0.083877 21:0.987749 22:-0.152993 23:0.994523 24:-0.095961 25:0.99834 26:-0.046529 27:0.999896 28:-0.002908 29:1 31:0.996433 32:-0.036021 33:0.984544 34:-0.156092 35:0.984405 36:-0.173792 37:0.989369 38:-0.132929 39:0.971966 40:0.121852 41:0.970947 42:0.207442 43:0.994503 44:0.039246 45:0.061225 47:-0.98629 48:-0.045282 49:-0.883463 50:-0.384894 51:-0.879298 52:-0.334568 53:-0.973794 54:0.105697 55:-0.993613 56:0.077167 57:-1 59:-1 61:-1 63:-1 65:-0.998979 66:0.034754 67:-0.994096 68:0.089499 69:-0.981563 70:0.18183 71:-0.987316 72:0.119731 73:-0.99843 74:-0.011213 75:-0.974873 76:-0.17941 77:-0.894026 78:-0.389436 79:-0.73826 80:-0.654162 81:-0.141725 82:-0.798856 83:0.473733 84:-0.875313 85:0.632852 86:-0.760627 87:0.330186 88:-0.768273 89:-0.376541 90:-0.882959 91:-0.20079 92:-0.40158 93:0.146029 94:0.073014 95:0.693637 96:0.346819 97:0.894427 98:0.447214 99:0.894427 100:0.447214 
